// Auto-generated weights

float W1[100352] = {-0.031400,-0.071925,-0.049514,-0.038629,0.067450,0.056496,0.004709,-0.000760,0.076371,-0.057867,-0.001807,0.070070,-0.027412,0.009329,-0.043560,0.021597,0.070613,0.048460,0.077379,-0.017962,-0.013063,-0.009469,-0.012177,0.004547,0.023095,-0.019483,0.046424,0.041043,0.025605,-0.005289,-0.019647,-0.063079,0.019671,-0.074702,-0.017545,0.077007,0.011767,0.048417,0.021989,0.040099,0.044906,0.050233,-0.063082,-0.017335,-0.042197,0.033370,0.016787,0.001949,-0.042562,0.025992,0.001433,0.070406,-0.080140,-0.028433,-0.007752,-0.030088,0.032514,0.052108,0.044893,0.067276,-0.074592,-0.001836,-0.029319,0.024228,0.026063,-0.053962,0.025463,0.029057,0.019974,0.061272,0.062865,0.016839,-0.070046,-0.010776,-0.007966,-0.032451,-0.003625,-0.045979,0.025152,0.014325,-0.012860,-0.066622,-0.026092,-0.007961,-0.015789,-0.051736,0.014087,0.019982,0.053066,0.075544,0.048029,-0.073982,0.032194,-0.071265,-0.057640,0.038407,-0.017178,-0.072258,-0.071478,0.031135,0.036007,-0.070429,-0.064277,0.031591,0.034704,0.043171,0.066895,0.016354,-0.076115,0.029112,-0.046499,0.012967,0.057107,0.016815,0.002963,-0.054432,0.028699,0.080400,-0.067663,0.058428,0.009714,0.009214,-0.076722,-0.022246,0.053758,-0.063586,0.078072,-0.028840,0.006950,-0.078886,-0.047567,0.045135,-0.027894,-0.051167,0.037379,0.031509,-0.008274,0.009440,-0.060637,-0.064409,-0.050050,-0.022542,-0.029758,-0.016306,0.072753,0.013440,-0.073676,0.067271,-0.057523,0.007862,0.047232,0.070343,-0.048538,0.028929,-0.032006,-0.043035,-0.054658,0.069574,-0.005002,-0.006554,-0.078426,0.061856,0.026780,-0.015280,0.002439,-0.009281,0.015745,0.059885,-0.013377,-0.037510,-0.016242,0.016919,-0.066257,-0.034924,-0.073316,-0.068668,-0.071869,0.037620,0.042645,-0.058411,-0.079724,-0.053843,-0.020253,0.080044,0.015907,-0.051483,0.028227,-0.020387,0.000050,-0.037720,-0.043424,0.054339,-0.080892,0.026404,-0.039968,-0.014779,0.055506,0.026756,-0.011229,0.040808,0.061167,0.011004,0.080602,-0.061789,-0.056360,-0.015064,0.062356,0.010826,0.063039,-0.043318,0.067951,-0.012203,-0.014323,0.006495,0.016756,0.044214,-0.024985,0.063029,-0.018381,0.008985,-0.027691,-0.068212,0.071732,-0.070265,-0.013571,-0.035387,-0.048447,-0.037581,0.032549,-0.016326,-0.041677,0.001434,-0.078130,0.016348,0.019373,0.016462,0.078260,-0.029941,-0.019644,-0.032631,0.076746,-0.072898,-0.069053,-0.078208,-0.009937,-0.000308,-0.012414,-0.003644,-0.057393,0.077033,0.055763,0.046151,-0.074737,0.036603,0.005922,0.041382,0.019736,-0.065988,-0.060862,-0.080891,-0.072646,0.074496,0.012691,0.073519,0.035992,0.061537,-0.041571,0.060574,-0.022800,-0.035916,0.061645,0.015413,-0.072561,0.077395,0.011462,-0.080181,0.068060,0.074168,-0.076654,0.017283,-0.045821,0.007230,0.044678,-0.038151,-0.051381,-0.002227,-0.004109,-0.034148,0.029518,0.069180,-0.018294,-0.053175,0.030624,-0.066401,-0.014049,-0.068324,-0.052639,-0.064921,-0.036171,-0.048403,0.024372,0.072733,0.058976,-0.073202,0.043338,0.059015,0.004090,0.010421,-0.053291,-0.080731,-0.062853,0.054150,-0.037195,-0.015795,-0.028051,0.045068,-0.053404,0.019559,0.049597,-0.048333,-0.080217,0.058793,0.010142,-0.020650,-0.060037,-0.079311,-0.032369,-0.004124,-0.066526,0.000876,-0.051764,-0.025631,-0.014386,-0.055467,0.004689,-0.044301,0.039483,-0.030510,0.065946,-0.058332,-0.045960,0.008088,0.042592,0.068174,0.063337,-0.017002,-0.057861,0.038775,0.012904,-0.077997,-0.032241,-0.064171,-0.069195,-0.041471,-0.005803,-0.027248,0.005265,-0.050643,-0.080428,-0.030760,0.070475,0.005851,0.031058,0.075871,-0.007576,-0.078401,0.012057,0.077971,-0.067858,-0.034791,0.079636,0.049206,0.008390,0.012706,-0.030731,-0.006315,-0.019210,-0.016111,-0.052713,-0.024243,0.001831,0.027241,-0.031785,0.005263,0.013717,-0.012173,0.000421,-0.065822,-0.029058,0.063507,0.002615,0.049433,-0.045999,-0.061137,-0.050385,0.074078,-0.022178,0.037502,-0.074566,0.057344,0.016403,0.055999,-0.004528,-0.045456,0.002517,-0.024017,0.035063,-0.072059,-0.014083,-0.046313,0.045222,0.013652,-0.002359,-0.070494,-0.039921,-0.026996,-0.053608,0.041581,0.032367,0.019583,0.074558,-0.073527,0.017029,0.048540,0.019865,-0.004969,-0.071334,0.013597,0.036572,0.066951,0.001209,0.057886,-0.053947,0.030466,0.060852,0.043358,0.003372,0.069385,0.074072,0.016223,-0.030567,-0.018772,-0.071755,-0.049355,-0.004763,0.035923,0.069346,-0.014902,0.029940,0.074097,0.000150,-0.012009,0.019025,0.080932,0.030636,0.066410,0.041625,-0.002009,0.032176,-0.080873,0.032560,0.073903,0.046611,0.065594,-0.045224,-0.004501,-0.050762,-0.058423,0.010635,-0.035660,-0.034106,0.026274,-0.044571,-0.045942,0.012863,-0.001124,-0.044581,0.036731,-0.074177,-0.006339,0.027976,0.003468,-0.033651,-0.074634,0.025102,0.010809,0.032961,-0.064304,-0.053885,0.041220,0.018335,0.041948,-0.038648,0.071738,0.027432,-0.040386,-0.029969,-0.039544,0.068053,-0.012894,-0.078173,0.039595,-0.018799,0.059338,-0.012893,0.066501,-0.060376,0.065245,0.007917,-0.009682,-0.080767,0.043184,0.080648,0.035129,0.039596,-0.049215,0.048377,0.006828,-0.046768,0.044545,0.017765,-0.055195,-0.057414,-0.012283,-0.007194,-0.013936,0.039056,-0.016066,0.006500,-0.015056,-0.044315,-0.030848,0.061511,0.005848,-0.011676,-0.047263,-0.008905,-0.009704,-0.061621,-0.048907,0.023372,0.080286,0.072800,0.043273,0.018106,0.041920,0.040419,0.021224,-0.040531,-0.015413,0.029321,-0.050649,0.074440,-0.033393,-0.028334,0.026890,-0.074272,-0.039030,-0.034041,0.009091,-0.006019,0.077511,0.078472,-0.009228,0.055743,0.057843,-0.057986,-0.071540,0.072211,-0.033332,-0.013500,-0.014099,-0.045026,0.023569,-0.026689,0.049919,0.017794,-0.071666,-0.036878,-0.005794,-0.047662,0.028796,0.032793,-0.077528,0.015919,-0.030798,-0.015028,0.075385,0.021225,0.061117,-0.080571,0.040557,0.007280,-0.066231,0.049014,-0.038484,-0.041125,0.062932,0.016282,-0.040181,-0.044565,0.066115,-0.044840,0.047964,-0.025568,-0.068179,-0.073504,-0.043119,-0.003727,-0.065111,0.057328,0.018425,0.026287,-0.056244,0.077604,0.022092,0.004987,0.014361,0.073369,0.041677,-0.071890,-0.055180,-0.054361,0.039362,-0.011985,-0.064578,-0.044812,0.064651,0.013418,-0.071151,0.041425,0.019063,0.066521,0.006409,0.056174,-0.078354,-0.031476,0.066894,0.080566,0.016207,0.080184,-0.033324,0.056815,-0.025000,-0.075414,0.025050,-0.010237,-0.059320,-0.006247,-0.051621,0.001096,-0.071941,-0.043186,-0.004099,0.072579,0.074688,0.019624,-0.004610,-0.039714,0.047288,-0.058237,-0.014932,0.011099,-0.059468,-0.039901,-0.010259,0.036756,0.005388,-0.013459,-0.053435,-0.064452,-0.059668,0.074092,-0.054751,-0.026722,0.059889,0.022003,0.011437,0.009330,-0.079298,-0.005539,0.070228,-0.025026,-0.076004,0.055609,-0.052698,0.002356,0.057143,-0.077350,0.030698,0.014418,-0.046756,0.041653,-0.040088,0.036887,0.046859,-0.040119,-0.036752,0.030256,-0.010465,0.068471,-0.078168,0.023578,-0.058564,0.023782,-0.075406,0.042817,-0.061760,0.032648,0.063350,-0.006416,0.025632,0.014618,-0.019080,-0.050362,-0.005690,0.005720,-0.076271,-0.020198,0.000747,0.016901,-0.065292,0.052120,-0.032883,-0.059215,0.003554,0.028044,-0.001650,0.048665,0.004826,-0.068581,0.020938,0.066473,-0.061759,-0.066534,-0.040797,-0.076772,0.008076,-0.003985,-0.032599,0.007265,-0.071054,-0.015762,-0.038990,-0.002694,-0.051102,0.019295,-0.033160,0.001531,0.069043,-0.075601,-0.054858,-0.008134,-0.045631,-0.028118,-0.080249,-0.038333,0.020354,0.075985,0.064991,-0.042137,0.076947,0.043621,0.073109,0.024389,-0.075560,0.051988,-0.058815,0.052260,-0.042554,-0.080415,-0.036114,-0.067744,0.035283,0.059211,-0.030150,-0.078926,0.036189,-0.028521,0.047620,-0.067403,0.001059,-0.071467,0.013851,0.002589,0.069973,0.001846,0.040023,0.012257,-0.064118,-0.049029,0.076651,0.020621,-0.039639,0.017665,0.055429,0.059660,0.050961,0.005034,0.029798,0.070465,0.014230,0.012921,0.023981,0.009644,-0.003751,-0.050762,-0.077833,-0.011360,0.057842,0.027068,0.009519,0.040192,0.013718,-0.026909,0.074056,0.072816,-0.078393,0.023127,0.061473,0.049303,0.000007,0.079639,-0.014208,-0.073395,-0.042875,0.030899,0.059921,-0.080731,-0.062541,-0.039580,0.035311,0.042424,0.076672,-0.067495,0.002475,-0.068006,-0.028525,-0.001296,-0.063888,0.010226,0.062692,-0.077248,-0.077860,-0.065416,0.050752,-0.048601,-0.022412,-0.036351,0.076739,-0.060622,0.029586,-0.066900,0.027419,0.000751,-0.069508,-0.015036,0.005414,0.005289,-0.071135,0.052734,-0.050423,0.045587,0.080373,0.079139,0.042363,-0.005744,0.043030,0.020328,0.072911,0.047565,-0.039503,-0.058918,-0.069881,0.026737,0.064549,-0.068668,-0.008561,-0.049118,0.007672,-0.056179,0.045231,0.023729,0.076701,0.073217,-0.076640,0.053379,0.012137,-0.046678,-0.057063,0.055409,-0.049620,0.042075,-0.061002,-0.077133,-0.066071,-0.076960,0.030347,-0.011804,0.038972,0.021292,0.048800,0.007032,0.056767,-0.019586,0.048731,0.023106,0.015154,0.019301,-0.064119,-0.000488,0.044694,0.016357,0.041862,0.046576,-0.063630,-0.072915,0.070248,-0.000853,-0.050752,-0.013694,-0.035534,0.080619,-0.005867,-0.008117,-0.042488,0.008329,0.028818,-0.065716,-0.055786,-0.044913,-0.047715,0.040562,-0.051826,0.045727,0.040034,0.032916,-0.006456,0.077796,-0.028572,-0.062454,-0.072894,-0.007192,-0.046795,0.018438,-0.012806,0.062757,0.024157,-0.009521,0.046019,-0.017413,0.030794,-0.038202,-0.035766,-0.050283,-0.026808,0.062619,-0.081066,-0.038137,0.038969,-0.059772,-0.037381,0.069310,-0.052798,0.009141,0.068207,0.042349,-0.071782,-0.063905,-0.011588,0.044467,-0.043443,0.080042,-0.058567,0.016329,0.074332,0.051129,0.055977,-0.014444,0.044039,-0.018663,-0.015750,0.056890,0.053460,-0.047825,-0.028647,-0.037987,-0.009354,-0.027582,-0.064836,0.079893,0.018446,-0.008780,0.028380,0.009245,0.012886,-0.039879,0.048909,-0.020056,-0.043918,0.079149,0.041435,-0.022811,0.011019,0.056427,-0.043930,0.027711,0.034018,0.000643,-0.072019,0.074565,-0.021813,0.006862,-0.032456,-0.030028,-0.009906,0.061796,-0.004007,0.064319,0.000505,0.021991,0.075637,0.056248,0.043772,-0.007904,-0.032110,0.029059,0.076956,-0.034878,0.016378,0.020874,-0.019602,0.050859,0.053609,0.013461,0.057440,0.037237,-0.047971,0.014957,-0.031302,-0.004718,0.076219,-0.040194,-0.036941,-0.076742,-0.060387,-0.014981,-0.040818,0.063167,0.027235,0.033435,0.070835,-0.030331,0.060327,-0.052959,0.026534,0.013527,-0.037439,-0.024401,0.039909,-0.063596,0.011654,-0.018325,-0.051843,-0.058394,0.044726,-0.056998,0.071997,-0.068711,0.059444,-0.008239,0.001201,-0.055706,-0.057234,0.023009,-0.055078,0.030656,0.024156,-0.065894,-0.052042,-0.034461,0.026840,-0.036713,0.025192,-0.032836,0.075362,0.006457,0.037202,0.048126,-0.044356,0.052495,0.051926,-0.034416,0.058753,-0.031817,-0.042689,0.005473,0.080151,0.006001,-0.027801,-0.050576,-0.046328,-0.042317,-0.050579,0.067648,-0.054507,-0.008650,-0.007930,-0.032973,-0.005749,0.006128,-0.037291,0.076244,0.073799,-0.049743,-0.059383,-0.067895,0.012658,-0.064065,0.050903,-0.003514,-0.069966,0.045653,0.003246,0.066077,0.043678,-0.077950,-0.010921,0.026038,-0.051480,-0.003208,0.001904,-0.075660,0.079709,0.072776,-0.050923,-0.018704,-0.081025,0.076686,0.071673,0.016133,0.051699,-0.061448,0.074080,-0.021163,0.061827,-0.059739,0.005414,-0.068086,0.006364,-0.025268,0.066482,0.056574,0.061086,0.030399,-0.013393,-0.079265,0.018951,0.020676,-0.032818,0.075671,0.063498,0.025633,-0.063371,0.025291,-0.034598,0.053604,0.008093,0.079480,0.008262,0.012412,-0.021773,0.015223,-0.060329,0.044192,-0.067198,-0.039580,-0.076827,-0.076266,0.064909,-0.018211,0.010712,0.042957,-0.010548,0.004595,-0.043686,-0.081096,0.067479,0.038554,0.034950,-0.056692,-0.075988,-0.048315,-0.067642,-0.011189,-0.079603,-0.045531,-0.004939,0.038738,0.075830,0.024322,0.002320,0.055658,0.001537,-0.012848,-0.010340,-0.057155,0.041699,0.007655,-0.068316,-0.042010,-0.022146,-0.034250,0.043518,0.026424,0.070585,0.055063,-0.061687,-0.023274,0.036172,0.073575,0.057582,0.017952,-0.036620,-0.056289,-0.018449,0.060092,0.007546,0.012435,0.040771,0.060567,-0.026015,-0.075335,0.076030,-0.054217,-0.049976,0.078341,0.034478,-0.015974,0.021637,0.054795,0.029579,-0.077960,0.046991,-0.025466,-0.018738,-0.061624,-0.049043,0.004423,0.026389,0.068241,-0.078792,-0.075990,-0.051698,-0.015164,-0.007057,0.050818,-0.041130,0.079359,0.035614,0.042689,-0.003475,0.017076,0.026106,-0.044995,0.063296,0.006838,-0.055327,-0.030878,0.040862,-0.060071,0.007691,0.024068,-0.072561,-0.064502,0.029243,-0.029196,0.056196,-0.021228,0.011474,0.056689,0.048729,-0.007395,-0.012498,0.000853,0.078380,0.004171,0.011378,-0.063916,-0.078891,0.066187,0.026019,0.005755,0.002765,0.013923,0.008966,0.061517,0.014369,-0.055208,0.028563,-0.004365,-0.075401,-0.068035,0.023498,-0.055141,0.067791,-0.020400,-0.013381,-0.010441,-0.044834,-0.058312,-0.022109,-0.045542,0.045160,0.029800,-0.004638,0.074051,0.033436,0.001669,0.059456,0.034901,0.044647,0.054489,-0.010425,0.051858,0.065971,0.019475,-0.019565,0.013416,-0.065935,0.005367,0.017427,0.017815,-0.065934,-0.079106,0.061137,0.006133,-0.023107,-0.028866,0.010189,-0.024520,0.002391,-0.010592,0.030682,-0.026085,-0.060003,-0.044108,0.037143,0.026162,0.008644,0.037843,-0.004961,-0.031703,-0.072991,-0.003849,0.031508,0.041284,0.025276,-0.048318,-0.057530,0.000509,0.014723,0.065470,0.059978,-0.003760,0.021703,-0.004811,0.077105,0.021892,0.058434,-0.022129,-0.070331,0.049610,0.064942,-0.062353,-0.035760,0.052416,0.051855,-0.054318,0.026809,-0.032184,0.063062,0.018434,-0.004557,0.033335,-0.075775,0.015232,0.034287,-0.058197,0.017728,0.079703,0.013712,-0.073786,-0.030257,-0.001475,0.073895,0.031968,-0.073070,0.006945,0.006403,0.042977,0.047961,-0.070021,-0.073059,0.033812,-0.073555,0.018461,0.039624,-0.033085,-0.067388,-0.030161,-0.067933,0.068377,-0.021915,-0.038435,0.010995,-0.039383,0.008856,0.040766,0.058801,0.043632,-0.017323,0.030430,-0.035760,0.004616,0.046237,0.063367,0.065047,0.041413,0.003124,-0.068244,0.073982,0.042630,0.015771,-0.065363,0.010894,0.076457,0.064640,0.050906,0.060084,-0.052799,0.048292,0.030772,-0.063575,0.056273,0.034175,-0.021641,0.056315,0.046050,-0.007838,0.072072,0.024557,0.078022,0.013196,-0.000603,-0.061330,-0.024370,0.054671,0.074386,-0.078818,0.057492,0.044451,0.022115,-0.055349,-0.069710,-0.009424,-0.052962,-0.023893,0.044738,0.046532,0.043703,0.054141,0.029738,-0.004829,-0.071998,0.029595,0.043953,-0.069643,-0.067295,0.032081,-0.044644,-0.041362,-0.040781,0.038205,-0.049634,-0.062523,-0.026198,0.030303,0.028283,-0.021808,-0.046080,-0.026771,0.031932,0.000544,-0.080128,0.064761,0.043833,-0.035388,-0.063507,-0.040952,0.016408,-0.073771,-0.013940,0.052232,-0.027878,0.032864,0.025791,-0.066082,-0.044150,0.031563,0.026784,0.077484,-0.028952,0.075268,-0.072405,-0.018372,0.020494,-0.080698,-0.078967,-0.029412,0.013394,0.046422,0.019298,-0.040465,0.015418,0.029153,-0.042789,-0.054297,0.023462,0.071726,0.077067,-0.054453,0.060908,-0.042302,0.047386,0.015912,0.064915,-0.058749,0.040266,0.071300,-0.012045,-0.000379,0.044110,-0.068145,0.090689,-0.044868,0.072867,0.080556,-0.102008,0.089989,-0.015298,-0.065212,0.013678,-0.009707,-0.034240,0.012545,0.021155,-0.035963,0.112084,0.023036,0.023528,0.038863,0.063993,-0.118531,0.041518,0.101361,-0.032007,-0.019563,0.045567,-0.052793,0.026303,0.078543,0.060877,0.009988,-0.012598,-0.051592,0.044376,-0.004756,-0.051086,-0.068639,0.088756,0.056018,-0.065080,0.042910,0.072434,0.058504,0.094661,-0.037023,0.010260,-0.024846,0.112119,0.035208,0.038652,-0.016463,0.044367,-0.098125,0.040600,0.104695,0.082368,0.052248,0.042843,-0.006105,-0.107731,0.037612,0.068849,0.129312,0.045072,-0.056522,0.047801,-0.072472,-0.051174,0.004081,0.084381,0.088261,-0.047238,0.012111,0.039011,-0.000213,0.137613,0.017647,-0.070210,-0.057283,0.035243,0.020947,-0.011624,-0.067777,-0.067114,-0.001948,-0.087026,-0.057533,0.075354,0.068175,-0.008066,0.037086,0.014056,-0.115675,0.125999,-0.061105,0.106982,0.056436,0.078132,0.039321,-0.076709,-0.001577,-0.010983,-0.063938,0.105233,0.042500,0.070230,-0.030356,-0.024212,-0.085765,0.047472,-0.048177,-0.115697,0.125390,-0.002420,0.072620,-0.053224,0.050096,-0.023066,0.008028,0.119251,0.008745,0.048054,0.043847,0.002602,0.038223,0.071963,-0.014258,0.036030,-0.013409,0.029302,0.060469,0.066400,0.002780,-0.127940,0.111076,0.001910,-0.016500,-0.023712,-0.045424,-0.016250,-0.109032,-0.013885,0.072531,0.097924,-0.075975,0.049314,-0.000612,-0.075573,0.037141,-0.000920,0.068500,0.011984,-0.021929,0.040026,-0.108730,0.073035,-0.069600,0.111780,0.073825,0.046593,0.026181,-0.073565,0.012731,-0.014146,-0.037029,0.027107,0.131933,-0.041165,-0.009042,0.000325,-0.004250,0.012199,-0.052801,-0.079775,-0.011674,-0.030667,0.058817,0.004718,0.047662,0.067045,0.015281,0.018565,0.111883,-0.016235,-0.034804,-0.041358,0.098526,-0.068688,0.011936,0.066516,0.114545,0.124481,-0.056681,0.087366,-0.075051,-0.069596,0.082466,0.034277,0.065898,-0.005427,0.042641,-0.035979,0.107482,0.046468,0.079371,-0.032044,0.091343,0.031691,0.049090,0.024263,0.054680,-0.052255,-0.003845,-0.037009,0.067336,0.053478,0.126162,0.058219,0.095072,-0.011854,0.022181,0.083510,-0.004521,-0.004195,0.122351,0.014459,-0.015012,0.032908,-0.080117,-0.015345,-0.124371,-0.024156,0.046298,-0.065412,0.002809,-0.015605,-0.073340,0.057124,-0.071164,-0.045749,-0.001663,-0.015086,0.073192,0.024608,-0.024316,-0.025411,-0.001513,0.000207,-0.071669,0.072700,0.054904,-0.049946,0.052348,0.055395,-0.018383,0.080449,-0.079108,-0.099706,-0.011992,0.025460,0.013431,-0.053459,-0.005875,-0.101008,-0.007296,0.088430,-0.024614,-0.020994,0.008341,0.061089,0.014543,-0.027009,-0.073562,0.002795,-0.011989,0.058039,0.001916,-0.038334,0.055014,0.028960,0.029601,-0.076470,-0.087032,0.064403,-0.059582,-0.021455,0.066949,0.036763,0.007667,-0.063837,0.026109,-0.078725,0.011476,0.002267,-0.025731,-0.032603,0.065310,-0.006976,-0.000468,-0.052374,0.133170,-0.011751,0.080304,-0.059617,-0.028006,-0.056319,-0.019914,0.064000,-0.021141,-0.037208,-0.014592,0.059572,-0.028124,0.066116,0.016808,-0.069359,0.044608,0.042280,0.097431,-0.055481,0.065778,-0.037019,-0.009850,0.030607,0.060647,0.075073,-0.010285,-0.071288,0.107073,0.044190,0.089502,-0.022877,-0.071071,-0.027531,0.041912,-0.081272,0.102855,-0.021885,-0.062735,0.063775,0.079678,0.010602,0.056928,-0.022546,0.093271,-0.022922,0.043472,-0.004886,0.033108,0.110549,0.073064,0.044291,0.027616,-0.039566,-0.088397,0.042908,0.052512,0.062882,-0.072258,0.057508,0.013833,0.040344,-0.028773,-0.074497,0.078846,-0.074642,0.000404,0.006067,0.066676,0.073893,0.045177,0.075889,0.018944,0.076228,0.076067,-0.004662,0.057594,-0.051284,-0.065168,-0.030961,-0.041684,-0.059009,-0.016498,-0.029210,-0.057682,-0.056890,-0.015924,-0.030673,0.072731,0.056337,0.036889,-0.020873,0.064424,0.046869,0.071958,-0.057549,-0.060848,-0.002192,0.035207,-0.074899,0.000891,-0.063218,0.015983,-0.045789,-0.061930,-0.007910,0.030327,0.001792,0.039955,-0.046188,0.076562,-0.073396,0.031479,0.089428,-0.025562,0.083338,0.067926,-0.017086,-0.037180,0.028274,0.021187,0.004886,0.069006,-0.017783,-0.064537,-0.012050,0.035005,-0.078171,0.004917,-0.064520,-0.004309,-0.026891,-0.016579,-0.067549,-0.006496,0.010102,0.080972,0.032115,0.019256,-0.053097,-0.056317,-0.002956,0.054331,-0.035755,-0.055074,0.008740,0.029873,0.051521,-0.038659,0.014279,-0.014449,0.070395,0.020396,0.063371,0.055845,0.039688,0.015873,0.066445,-0.014906,0.063341,0.078575,-0.019381,0.059942,-0.083407,0.024355,0.085834,-0.012697,-0.022700,-0.011427,-0.060136,-0.030327,0.079424,0.071387,-0.074436,0.068801,0.046125,0.032399,-0.066645,-0.018785,0.031513,-0.010929,0.024367,0.032264,0.072825,-0.034811,0.042559,0.072104,-0.068451,0.013042,0.027194,-0.002931,0.059389,0.000646,0.005090,-0.036939,-0.026619,0.006875,0.026027,-0.047738,0.008104,-0.052219,-0.058189,-0.009028,-0.012536,0.061220,0.001561,-0.043884,0.040474,-0.067930,-0.036609,-0.012899,-0.006658,0.016535,-0.047038,0.029173,0.061366,0.056752,0.032620,0.003005,-0.021540,0.055970,0.041675,-0.074586,-0.033378,-0.080024,0.026696,0.043315,0.042821,-0.080860,0.036632,-0.040058,0.043032,0.009071,-0.079656,-0.024350,-0.035560,-0.057291,-0.035620,0.015082,0.002856,0.044646,0.021716,0.034983,-0.057107,0.070246,0.005560,-0.074987,0.031567,-0.067999,-0.026778,-0.074050,-0.039107,-0.075459,-0.066810,0.043165,-0.071711,0.064904,-0.060765,0.005348,0.001965,-0.034764,-0.049596,0.003419,-0.029455,-0.018488,0.057194,0.017258,-0.005737,0.035503,-0.012989,-0.017972,-0.054147,0.034081,0.070206,-0.007386,-0.015742,0.016754,0.003613,0.067747,-0.077665,0.038389,-0.006207,-0.015364,0.065680,-0.016758,-0.049208,-0.051696,-0.029763,-0.009100,0.011752,-0.009865,-0.022103,0.028128,0.043499,0.006019,-0.068281,-0.066165,-0.019980,0.033087,0.020336,0.043002,0.017277,-0.000207,-0.046745,0.027326,0.031642,0.001092,0.052984,-0.063234,-0.033116,-0.012025,0.063897,-0.003419,0.016754,0.050817,0.059350,-0.062192,0.054965,0.050905,0.044805,0.035735,-0.022120,0.058985,0.042558,-0.043743,0.009478,0.008239,-0.067673,0.074806,0.037586,0.070092,-0.001469,0.069133,0.067871,-0.066096,-0.052907,-0.070584,0.020253,0.007518,-0.076726,0.014819,-0.067607,0.030842,0.030250,0.071391,0.028338,0.056261,-0.025529,0.037806,0.050240,-0.005910,0.049308,-0.022465,-0.052977,0.005876,0.004657,0.048024,0.045645,-0.045578,-0.037035,-0.008220,0.030530,-0.021090,-0.034680,0.071377,0.059746,0.065263,-0.047341,0.019494,0.000766,-0.041884,-0.079668,0.064235,0.005778,-0.066258,-0.031490,-0.068888,0.010190,-0.025110,-0.044077,-0.004043,0.046189,0.044220,-0.020714,0.042493,0.065537,0.009764,0.071208,0.030833,-0.001567,0.028444,-0.031261,-0.059435,-0.000651,0.064002,-0.067912,0.080328,-0.025664,0.081063,-0.036764,-0.070827,-0.018059,-0.006104,0.054391,-0.046106,-0.006150,0.076441,-0.005215,0.009617,0.044037,0.043728,-0.080012,-0.014840,-0.059244,0.072659,0.006940,0.058459,0.069470,0.043887,0.040004,0.027035,0.026279,0.066644,0.023391,0.078463,0.012939,0.036859,-0.039196,-0.024403,0.025492,-0.048055,-0.051799,0.065357,0.001126,0.008301,-0.044878,0.036067,-0.045012,-0.015688,0.039093,0.016703,-0.040647,-0.078133,-0.045470,-0.018723,-0.003514,0.036879,0.005693,0.013347,0.053193,0.073855,-0.023358,0.068546,0.025945,-0.038390,-0.068162,0.076294,-0.079945,0.008553,-0.080348,-0.028482,0.029737,-0.060031,-0.037623,0.038533,0.052442,-0.057197,0.065065,0.002530,0.023204,-0.057716,0.001118,-0.040768,-0.041500,-0.036355,0.050464,0.029010,-0.079942,-0.022415,0.058575,-0.035679,0.075764,-0.036268,-0.012021,0.052035,-0.068466,-0.075472,0.063357,0.041189,-0.026791,0.071581,-0.062963,0.076360,-0.014169,0.040636,-0.070107,0.018576,0.004725,-0.050690,-0.007631,0.069505,0.019500,-0.000420,-0.009300,0.071417,0.058565,0.030028,0.014542,-0.033173,-0.003632,-0.048973,0.067696,-0.010656,-0.035634,0.058350,-0.065589,-0.009986,0.011835,-0.065670,0.021402,-0.071381,-0.031330,0.064384,-0.075039,-0.076446,0.072841,-0.003904,-0.046441,0.075090,-0.014355,-0.001489,0.065516,0.017356,0.051680,0.013256,-0.080229,0.076618,0.043528,-0.027180,-0.039738,-0.005537,-0.017538,0.023164,-0.048813,-0.047099,-0.031986,-0.076436,0.073229,0.067217,0.074296,-0.000938,0.014044,-0.074986,-0.068977,0.022364,-0.061808,0.011095,-0.038908,-0.010434,0.000087,-0.033592,-0.028082,-0.013040,0.045344,0.075107,-0.050885,-0.006366,-0.043483,0.039769,0.000243,-0.015940,0.028703,-0.025859,-0.004691,-0.031515,-0.018422,0.043239,-0.058635,0.062522,-0.029948,-0.000956,0.049314,-0.066142,0.074789,-0.071175,-0.003140,-0.043034,-0.025233,-0.064865,-0.042082,-0.049939,0.073662,0.003671,0.068364,-0.035991,0.006752,0.051797,-0.005794,-0.014435,-0.065924,-0.005078,0.064624,0.025570,-0.046062,-0.048381,-0.077984,-0.051994,-0.017448,-0.040146,0.079770,-0.055812,-0.051326,0.079955,-0.047398,-0.067920,-0.072767,-0.040500,-0.054159,0.069227,-0.040756,-0.001119,-0.033681,-0.057799,0.033582,-0.060487,0.080212,0.064383,-0.074599,0.043485,-0.063935,0.062149,0.030677,-0.016770,-0.051510,-0.016537,-0.013487,-0.077247,0.072023,-0.015552,-0.066176,-0.074258,-0.031411,-0.012394,-0.002811,0.021687,-0.053697,0.019086,0.069426,-0.046378,0.024890,0.033385,0.008914,0.039701,0.004114,-0.065949,-0.010451,-0.044626,-0.061070,0.021793,0.053147,-0.043508,0.038995,0.012072,0.047488,0.021048,-0.039153,0.075899,0.052455,-0.023598,0.051612,0.078661,0.057209,0.047097,0.002380,-0.039429,0.076962,0.055412,-0.041215,-0.010317,-0.021601,0.046304,0.020743,-0.024105,0.037329,0.038402,-0.064522,-0.032790,0.045398,0.079159,0.010918,0.056991,-0.043580,0.053832,0.012307,0.032769,0.068370,-0.016481,0.004735,0.007292,-0.010800,0.030549,-0.071321,0.035537,0.005496,0.025075,-0.055736,0.049665,-0.014791,-0.052708,0.027532,-0.041934,0.011637,-0.014548,0.054585,0.042399,0.062404,-0.052999,-0.060409,-0.039680,0.019669,-0.018409,-0.044726,0.052233,-0.068380,0.009501,-0.048645,0.021201,0.016825,-0.013992,0.078522,-0.070106,-0.045792,0.067756,0.060694,0.030390,0.027865,-0.020118,0.006632,0.053110,-0.021141,0.066904,-0.059917,0.062495,-0.079051,0.020838,-0.038082,0.026090,0.047841,0.054103,-0.036364,-0.067220,-0.039600,-0.070797,-0.051988,0.065602,0.021612,-0.013888,-0.005056,0.029522,-0.062244,0.059096,-0.050888,0.039534,-0.077025,-0.066799,0.076682,0.021712,-0.042809,-0.077346,-0.031290,0.008590,-0.040054,0.071838,-0.020297,0.056395,-0.017987,-0.022372,-0.008511,0.037985,0.063762,-0.050229,-0.054316,0.027307,0.059371,0.063770,0.056243,0.034488,0.067014,-0.073284,-0.064787,0.078614,-0.019494,-0.000623,0.021106,0.056789,-0.027398,-0.021601,0.019449,0.006514,-0.020858,0.011208,0.041951,-0.046130,-0.012365,0.068253,-0.039136,-0.032015,-0.068562,0.054677,-0.035536,-0.052912,-0.059613,0.062672,0.042717,-0.035175,-0.053580,-0.056223,-0.071828,0.025179,0.048840,-0.008925,0.060640,0.064590,0.041652,0.007465,0.023859,0.067104,0.056961,0.036293,-0.080845,0.043457,-0.003005,-0.025063,0.067969,-0.068885,0.046612,0.073760,-0.003165,0.038690,0.045129,-0.047542,0.076223,0.041944,-0.062142,-0.028910,0.010046,0.007475,0.011781,0.061860,-0.045775,0.068157,-0.021810,-0.039879,-0.024558,-0.008186,-0.004874,-0.050730,0.076628,-0.064863,-0.065000,0.018181,0.074502,0.001969,0.043906,-0.066126,0.062878,0.036992,0.050071,-0.012853,-0.042238,-0.010892,0.021385,0.024726,0.050166,0.007046,0.052494,0.006348,-0.013516,0.023873,0.036229,-0.002215,0.047251,-0.012686,0.015403,0.046817,-0.003572,-0.068754,-0.056839,0.008355,-0.065675,-0.062723,-0.037183,-0.005071,0.046715,0.012371,0.078661,-0.010719,0.045435,0.075135,0.039519,-0.037451,0.037489,0.074906,-0.073249,-0.034877,-0.007251,0.019919,0.006375,-0.076792,-0.051361,0.009414,-0.027363,0.065381,-0.000008,-0.008310,-0.052960,0.058419,-0.055412,0.081007,0.051139,0.079264,-0.020521,0.064952,0.079349,-0.069707,-0.078678,-0.057752,-0.006724,-0.053586,-0.040880,0.073257,0.074627,-0.008389,0.004087,-0.074068,-0.030249,0.058777,-0.070601,0.037216,-0.052585,-0.067927,-0.044030,-0.021635,0.000389,-0.078975,0.008496,0.065058,0.056909,-0.030393,0.040426,0.062230,-0.039931,0.057665,-0.012746,-0.044024,-0.035714,0.054993,0.024137,0.056837,0.001711,0.005108,0.011570,-0.047708,-0.027334,-0.046679,-0.059062,-0.049707,-0.024122,0.023879,-0.022535,-0.063062,-0.077092,0.024213,-0.021435,-0.026826,-0.058820,-0.078921,0.032252,0.058965,-0.011213,0.014785,0.058797,-0.053945,-0.006617,0.061542,0.050821,0.013589,-0.062164,-0.072677,-0.001843,0.047367,0.076355,0.069865,-0.030759,0.066330,0.024961,0.039361,0.014090,-0.038031,0.010432,-0.034397,-0.014287,0.020355,0.017382,0.054155,-0.035252,-0.073464,0.075924,-0.045042,0.015776,-0.011616,0.022552,0.072111,-0.013717,-0.031604,0.002940,0.035335,-0.018662,0.077274,-0.029929,0.067763,-0.039602,0.062317,0.025628,-0.018111,-0.007149,0.049794,0.020756,0.080373,0.031296,-0.022545,-0.075089,0.068770,0.056027,-0.034022,0.078965,0.047932,0.011364,-0.057727,0.019829,-0.053706,-0.020024,-0.079373,-0.035108,0.012471,0.040286,-0.006352,0.077967,-0.057587,0.038276,0.059042,-0.078291,-0.026171,-0.072000,-0.069477,0.065503,-0.027377,-0.063946,0.043733,-0.080551,0.045320,-0.048269,0.003015,-0.007323,-0.010046,-0.035356,0.033789,0.069165,0.076710,-0.076485,0.052241,-0.031650,0.071076,-0.005918,-0.041332,-0.081072,-0.045433,0.059908,0.024485,-0.064019,0.070888,0.063375,0.073319,-0.015378,-0.001045,0.006310,-0.029578,0.072341,0.026589,-0.072837,-0.000122,0.019508,-0.002543,0.032247,-0.036252,0.006464,-0.042930,-0.027633,-0.061085,0.006340,0.042261,0.053431,-0.018946,-0.066747,-0.018267,-0.078624,-0.074594,0.068908,-0.078702,0.029357,-0.071590,-0.067681,-0.031032,0.061400,0.008824,0.036573,0.038161,0.056221,-0.046663,-0.015914,-0.048717,-0.065305,0.046267,0.073032,0.063898,0.012198,-0.007712,0.031989,-0.049573,0.037080,0.008207,-0.004687,0.036685,0.061844,0.031752,0.074224,-0.041373,-0.040488,0.005695,-0.043056,0.034933,0.043629,-0.005101,0.011255,-0.071895,-0.041924,-0.078023,0.035061,0.013924,-0.007207,-0.007003,0.073056,0.066420,0.047146,0.015092,-0.049336,-0.070605,0.004376,-0.025653,-0.057298,0.006486,-0.074942,0.069853,0.068794,-0.061445,0.015172,0.035534,0.032476,-0.012125,-0.028765,0.023021,0.052959,0.043533,0.023147,-0.050330,0.041467,-0.058366,-0.081075,-0.002794,0.075945,-0.017642,-0.013386,0.068639,0.060107,-0.019265,-0.044323,-0.006097,0.051737,0.034845,0.032234,-0.003322,0.039686,-0.080206,-0.014265,0.043031,0.019591,-0.029080,0.061061,-0.060334,-0.008833,0.067078,0.069682,0.006308,-0.041221,0.078775,-0.067093,-0.029971,-0.026043,0.002225,0.000349,0.073570,0.062507,-0.011272,-0.037919,-0.068860,-0.040205,-0.058970,-0.058371,0.004879,-0.068555,0.063110,0.067080,0.036326,0.041156,0.053796,0.074182,-0.009949,0.009093,-0.003079,0.003939,-0.005696,-0.019413,-0.038879,-0.059378,0.061681,0.071142,-0.027964,0.014529,-0.032147,0.060535,0.053133,-0.013956,0.055064,-0.071234,-0.072248,-0.023770,-0.014196,-0.054228,0.029766,0.069378,-0.063277,-0.032767,0.038644,-0.078545,-0.020627,0.039501,-0.012469,-0.045047,-0.020373,-0.075806,0.078234,0.025470,-0.048685,-0.019376,-0.071613,-0.037076,0.046802,0.074682,-0.042946,-0.003798,0.005583,-0.045727,0.024836,0.075967,0.070427,-0.020403,0.038363,-0.028150,-0.034653,0.013093,-0.026344,-0.044829,-0.018038,0.076161,0.002041,0.000123,0.044793,-0.062808,0.073288,-0.020186,0.057102,-0.054402,-0.069315,0.052021,0.003102,-0.035948,0.047202,0.004501,0.001863,-0.047086,-0.053928,0.071083,0.017474,-0.009932,0.029988,-0.020751,-0.020709,0.074487,-0.013650,-0.075574,-0.011914,-0.056769,-0.020302,-0.027698,0.067324,0.035210,-0.008178,0.079683,0.033218,-0.075665,0.046187,0.034280,0.009548,0.028660,-0.067662,0.058939,-0.032794,-0.010979,-0.060297,0.027889,-0.017484,-0.052651,-0.023028,0.071292,0.021412,0.079136,-0.020323,0.024101,0.043407,-0.029974,0.061399,-0.043204,0.049424,-0.014381,0.005474,0.020716,-0.045969,-0.078217,0.075704,0.019786,0.080084,-0.072605,0.080948,-0.072269,0.018273,0.003250,0.009561,-0.076402,0.051294,-0.005999,-0.048609,0.045728,0.031253,-0.003205,-0.064422,0.015555,-0.028198,0.042835,0.018821,0.014811,-0.017679,-0.047457,-0.002946,-0.078232,0.075454,0.011769,0.078651,0.044992,0.041484,-0.010211,-0.030648,0.020565,-0.061050,-0.015174,0.037412,-0.041719,0.032338,-0.052153,-0.029429,-0.059676,-0.030202,0.027067,-0.007594,-0.037113,0.025267,0.017184,-0.013118,0.032883,-0.070690,0.060811,-0.008027,-0.078962,-0.019333,0.016084,0.079705,0.033489,0.015666,0.053778,0.063746,0.032744,0.024471,0.018858,0.009733,0.041072,0.059975,0.037163,0.016566,0.002078,0.006092,-0.080103,-0.057873,-0.014662,-0.016090,-0.023615,-0.068883,-0.005893,0.029455,-0.018193,0.078087,0.034842,-0.054778,-0.013611,-0.037146,-0.076298,-0.036514,0.036958,0.026697,0.035734,-0.033929,-0.080406,0.054838,-0.040223,0.063003,-0.049498,0.001965,-0.057512,-0.000862,0.040666,-0.019128,0.005506,-0.058646,0.039781,-0.058929,0.033587,0.044842,0.024119,-0.048758,0.041307,0.005265,-0.021387,0.078917,-0.045718,-0.051187,-0.060545,0.005456,-0.024466,0.067678,0.037625,-0.070381,-0.040407,0.006381,0.044152,0.039305,-0.038435,-0.069577,0.041532,-0.060616,-0.059734,0.058319,-0.061224,-0.051913,-0.064470,-0.011319,0.001390,-0.043301,-0.075989,0.068115,0.039385,-0.075808,-0.035650,0.034899,0.074144,0.011629,0.013980,0.054315,0.030781,-0.000301,0.028242,-0.039236,-0.067040,-0.029869,-0.010296,-0.016744,0.081013,-0.026881,-0.044569,0.007454,-0.039584,0.025605,-0.070863,0.024815,0.061590,0.021437,-0.056659,0.020942,-0.059050,0.072500,-0.018621,-0.078299,-0.077018,0.004615,0.056186,0.045458,-0.040593,-0.059063,-0.044648,-0.002530,0.056896,0.040309,0.066093,0.066662,-0.080115,0.020433,0.042699,-0.041242,-0.051923,-0.070077,-0.020817,0.054706,-0.009369,-0.021960,0.015033,-0.036347,-0.070854,-0.005692,0.052208,0.049615,0.011121,0.062827,0.044403,0.039273,-0.000081,-0.056761,0.013725,0.074548,0.069428,-0.022273,0.036779,-0.042768,-0.054638,-0.039764,-0.046780,-0.062518,-0.071764,-0.069301,0.034737,0.027041,-0.018894,-0.045937,0.013163,-0.009555,0.043163,-0.018076,0.061873,0.041105,-0.036524,-0.018795,-0.027716,-0.032804,-0.041063,0.067185,-0.065799,0.024931,0.009779,-0.067326,0.034548,0.070175,-0.046231,0.008002,0.059814,-0.007773,0.060156,-0.050617,0.013579,0.015745,-0.037914,-0.057911,0.040746,0.003255,-0.007429,0.074693,0.033143,0.037803,-0.057523,-0.036749,0.050901,-0.050326,-0.008371,-0.023551,0.072562,-0.078900,-0.019276,0.064408,0.042683,-0.063382,-0.004857,0.074403,-0.025942,0.068508,-0.068820,-0.047618,0.059553,-0.065619,0.041475,0.055549,-0.013965,0.072613,0.069111,0.005650,-0.006301,-0.040990,0.000315,0.016489,0.061976,-0.073342,0.080374,-0.023106,-0.055387,-0.046723,-0.040058,-0.024124,-0.014387,-0.072552,0.034027,0.015480,-0.067933,-0.005304,0.039662,-0.004626,0.054509,0.037892,-0.023376,0.005447,-0.025412,-0.063079,-0.012054,-0.069437,-0.067094,0.028375,-0.050897,-0.077082,0.042814,0.006310,0.031860,0.054381,-0.017741,-0.075488,0.053408,-0.031573,-0.059102,0.073025,0.053185,0.045503,0.069412,-0.003383,-0.038364,-0.055910,0.055828,0.049125,0.022442,0.050152,-0.004442,-0.058710,-0.045613,0.031704,-0.040953,-0.031682,-0.036100,0.047291,0.017686,0.026396,0.074029,-0.038738,0.075677,0.028134,-0.008924,-0.073669,0.057863,0.003530,-0.005637,-0.002130,0.040612,0.080466,0.031750,-0.011277,0.033800,0.050700,0.062097,-0.013705,0.009953,-0.068494,-0.069361,0.052964,0.030843,-0.079097,0.002442,0.019191,-0.013074,-0.018569,0.064538,0.014933,-0.010998,-0.046628,-0.072244,-0.062747,0.030389,-0.062748,0.073218,-0.012326,0.009135,0.076935,-0.036745,-0.073549,-0.034429,-0.079372,0.023928,-0.034340,-0.055890,-0.054792,0.054838,-0.049069,0.023241,-0.060062,-0.042313,-0.009787,-0.014221,0.034773,0.045742,-0.040407,0.013982,-0.063221,-0.002519,-0.047214,0.023183,-0.068419,-0.047469,0.032541,-0.037348,-0.051258,0.026914,0.051910,-0.006432,-0.042287,0.058707,-0.004530,-0.041648,0.042909,-0.023354,-0.045422,0.066665,-0.069067,-0.060027,0.010110,-0.024428,0.067259,-0.072687,0.012778,0.039844,-0.053790,-0.066876,-0.055796,0.009496,-0.030721,-0.029413,-0.003816,0.063199,-0.039689,0.003747,0.014436,0.071156,0.010722,0.033611,0.032032,0.021505,0.063810,-0.018322,0.019566,-0.071486,0.063438,-0.026827,-0.026972,0.018391,-0.010434,0.029682,-0.008689,0.008534,0.008430,-0.050039,-0.071419,0.011558,0.075695,0.027887,-0.067409,0.068111,0.034425,0.060826,0.000809,-0.013549,0.041592,0.078116,-0.030363,0.036851,-0.011511,0.017566,-0.080254,0.000692,-0.009516,0.002953,0.002495,0.021982,0.028254,0.035797,0.013432,-0.047489,0.039626,0.007983,0.075297,0.067561,0.038133,0.033160,-0.009207,0.073030,0.063683,0.030269,-0.053634,-0.059114,-0.050257,-0.063471,-0.063895,0.074129,0.077701,0.042458,0.003524,0.069797,0.018915,-0.016684,-0.051795,-0.027938,0.074536,0.029876,-0.039390,0.030241,-0.044438,0.048110,0.022131,0.031292,-0.064505,0.004680,-0.006277,0.001099,0.002599,0.057818,-0.042320,0.059562,0.038684,-0.039970,0.000545,0.045919,-0.055326,-0.029295,0.008975,0.034930,0.019189,0.048177,-0.033424,-0.040431,0.073037,-0.016469,0.054963,-0.008184,-0.042339,0.047317,-0.062341,-0.074740,0.010910,0.003048,-0.035023,-0.039803,0.078144,-0.072670,-0.030080,-0.070095,-0.078611,-0.081081,0.001586,-0.078528,-0.039573,0.037294,0.005799,0.033762,-0.042872,-0.067117,0.018782,-0.031623,0.068431,0.067340,0.007656,0.062173,0.007463,-0.039783,-0.017738,0.004537,0.002776,-0.033004,0.038308,-0.024091,0.017461,0.046152,0.067065,0.047965,0.077394,0.020174,-0.072846,0.046045,0.045969,-0.074703,0.033987,0.041531,-0.055290,0.066963,0.027249,0.030154,0.072104,0.054066,-0.021491,-0.060222,0.063903,0.024235,0.056748,-0.012462,0.040397,-0.074692,0.075956,0.047109,0.078561,0.076017,0.056786,0.044140,0.016704,-0.011448,-0.002762,-0.077644,0.070406,0.001091,0.039860,0.042586,-0.047801,0.013778,-0.026031,0.066420,-0.062672,-0.005440,-0.053792,0.012258,-0.016769,-0.031173,-0.075678,-0.027316,0.041711,-0.013368,-0.064877,-0.042361,-0.067545,0.006810,0.075347,-0.035795,-0.018717,0.070027,-0.071356,0.026517,-0.052708,0.011339,0.058710,0.077671,-0.070577,-0.027026,-0.039430,-0.033121,0.057742,-0.069441,0.080114,-0.018515,-0.027222,0.042603,-0.044171,0.054612,0.056721,0.033706,-0.020839,0.063930,-0.027913,-0.008681,-0.021434,0.004325,-0.070001,-0.032932,0.004646,0.035095,-0.069404,0.012482,-0.070901,0.073215,0.022911,-0.069571,-0.040927,0.019791,-0.042096,-0.046389,-0.075230,-0.008411,0.067440,-0.033488,0.066866,-0.026472,0.025036,-0.025589,-0.013524,-0.031053,-0.028585,0.019002,-0.057669,0.042520,0.008116,0.002784,-0.005538,-0.044130,0.055467,-0.081006,0.016623,0.031104,-0.019642,-0.044658,-0.032268,0.066122,-0.013628,0.040421,-0.057881,0.014775,0.026753,0.030468,-0.029679,0.065519,0.042462,0.022362,-0.062059,-0.020028,0.010661,0.025041,-0.076849,0.068078,-0.007491,-0.066683,0.050334,0.068837,-0.032977,0.052791,0.034339,-0.060289,0.016532,-0.048919,-0.021072,-0.080472,-0.035695,0.027305,0.026939,-0.061988,-0.005841,-0.030161,-0.065892,-0.071162,-0.078865,-0.013967,0.054767,-0.012799,-0.070604,-0.044695,-0.016588,-0.021390,-0.074210,0.028911,-0.051152,0.049518,-0.001432,0.028062,-0.022065,0.029613,-0.019915,0.036178,-0.058520,-0.054849,0.050131,-0.079411,-0.073621,0.031673,-0.037196,-0.007650,-0.040744,-0.049929,-0.012030,0.001298,0.015751,0.055243,0.046330,0.049218,0.014061,0.013401,0.015758,0.037424,-0.044873,-0.026166,0.010028,0.070542,-0.064194,0.032298,-0.052175,-0.035653,-0.041081,-0.026150,0.006441,0.055939,-0.008439,-0.075354,0.045386,0.029290,0.073709,-0.054004,-0.041824,0.013938,0.009558,0.000923,0.067306,0.043058,-0.033242,-0.037103,-0.067156,0.041004,0.058427,-0.022901,0.080056,-0.002319,0.049492,-0.018884,-0.015874,0.025501,0.045623,0.024264,-0.071788,-0.078007,0.061952,-0.003518,0.059716,0.034133,-0.078452,0.046753,0.014213,0.030641,-0.045702,0.023749,-0.049278,-0.073247,0.013678,-0.026582,-0.023661,0.001919,0.009528,-0.030473,-0.013542,0.032463,0.011872,-0.059989,0.010395,-0.074027,-0.013524,0.013157,0.062475,0.062249,-0.006829,-0.047573,-0.018294,-0.078712,0.045675,0.009477,-0.021275,-0.077604,-0.076633,0.068361,0.040639,-0.035181,0.074484,0.048579,-0.074537,0.067970,0.065615,0.045579,-0.068907,0.011558,-0.030424,-0.000006,0.074338,-0.030944,-0.064114,0.051598,-0.056881,-0.015785,0.080490,-0.034160,0.063905,0.012412,-0.053538,-0.034906,-0.072208,-0.051771,-0.002601,0.015349,-0.012806,-0.077145,-0.039354,0.070216,0.053879,0.042044,-0.052987,0.060958,0.032905,0.010261,0.020842,-0.025541,-0.044971,-0.023537,0.079743,-0.021827,-0.044288,-0.069657,-0.071206,-0.044975,-0.059577,0.002088,0.069890,0.079431,0.067019,-0.073185,0.052133,0.009738,-0.042333,-0.067698,0.052699,0.072629,0.010319,-0.039505,0.021449,-0.045088,-0.014748,-0.031731,0.041146,0.051946,0.031282,-0.013231,0.016793,0.065246,0.054822,-0.035598,0.057664,0.032218,0.005238,-0.055434,0.016730,0.057680,-0.017168,-0.065199,0.069090,-0.014414,-0.002660,0.005492,-0.020707,-0.035689,-0.020020,0.019297,0.062236,-0.071921,-0.062034,0.078860,-0.019977,-0.011001,-0.076680,0.062203,-0.035671,0.060710,-0.052765,0.009601,-0.005737,0.038270,-0.044445,-0.044345,-0.011888,0.047032,-0.000395,0.005179,-0.031236,0.032462,-0.013029,-0.045753,0.050328,-0.008733,-0.043995,0.014983,-0.029344,-0.083562,0.023631,-0.005502,0.004566,-0.020390,0.039674,-0.004447,-0.079727,-0.048063,-0.012250,-0.056451,0.002991,-0.022296,0.046914,0.021054,0.042966,-0.066887,-0.059477,0.072594,-0.007295,-0.012576,-0.022244,0.056815,0.044358,-0.032408,0.026593,-0.029796,0.026876,0.020100,0.016224,0.066955,-0.067983,0.004441,-0.049551,-0.021260,-0.003810,0.026335,0.064511,0.062496,-0.065700,-0.031678,-0.040558,0.062388,0.053165,0.026392,0.009173,-0.035099,0.039313,-0.064793,0.017200,0.026880,-0.068909,-0.068766,0.062211,0.003983,0.035736,0.047903,-0.064348,0.024470,-0.028299,-0.033721,0.059643,0.055782,-0.080930,0.118543,-0.007850,-0.072702,0.078586,0.033135,-0.051984,0.056129,-0.011739,0.033278,-0.044855,0.071925,0.036396,-0.065790,-0.055223,0.058678,-0.100023,0.017573,0.007750,0.023511,-0.062073,-0.013739,0.015596,0.002511,-0.032527,0.007777,0.069129,0.007608,0.072825,-0.050418,-0.058069,-0.004000,-0.012679,0.014173,0.005500,-0.023932,0.053796,-0.040905,0.097907,-0.011983,0.064378,-0.063972,0.029642,0.061605,0.066052,0.061291,0.034203,-0.007942,-0.075119,-0.004598,-0.008397,0.066685,-0.076412,-0.073461,-0.013671,-0.038398,0.076196,-0.071419,0.110102,-0.081647,0.060986,-0.039708,0.108584,0.013655,-0.063792,-0.086280,-0.024494,-0.047985,0.031063,0.046671,-0.055277,-0.071324,0.024763,-0.023861,-0.015099,0.043295,-0.015099,-0.040657,-0.000224,0.057266,0.040452,-0.052996,-0.016877,-0.039565,-0.068206,-0.013257,0.046140,0.055011,0.039887,0.000862,-0.003986,-0.038392,0.035999,-0.001369,-0.072552,0.000480,-0.034529,-0.061437,0.113744,-0.023010,0.035582,-0.081072,0.003734,0.045721,0.030961,-0.077015,0.039534,-0.002094,-0.007137,0.086831,0.048902,-0.009957,0.097581,-0.049624,0.005212,0.054925,-0.064412,-0.086994,0.034693,0.050229,-0.031998,-0.064533,-0.048250,-0.043433,0.003853,-0.003537,0.114584,0.000673,0.009970,0.151749,-0.040987,0.029820,0.006976,-0.008129,-0.134008,0.086297,-0.086099,-0.062658,-0.085204,0.140295,-0.094054,-0.044302,-0.004260,-0.075442,-0.095978,-0.130245,-0.031726,0.054438,-0.117589,-0.042948,0.012832,-0.002329,0.017313,0.093785,-0.070208,0.101899,-0.064399,-0.131598,-0.019689,0.050303,-0.143633,-0.048519,-0.017161,-0.077422,0.027248,0.124276,0.154130,0.004702,-0.196198,0.082764,0.029141,-0.058706,0.096185,-0.071696,-0.076643,-0.124408,0.053119,-0.006501,-0.011808,0.016077,0.084446,0.069807,0.033372,0.044020,0.056023,-0.080794,0.025614,-0.045589,-0.002319,0.035112,0.086403,0.063888,-0.048380,0.017433,-0.129810,-0.141700,-0.023292,0.011859,0.139642,-0.023322,0.037345,0.042074,0.029195,0.146267,-0.008367,-0.051427,-0.020537,-0.003985,-0.068928,-0.003356,-0.056180,0.020160,0.006987,0.008359,0.030238,-0.057865,-0.071307,-0.028749,-0.043861,0.055582,-0.144514,0.026080,-0.066224,-0.027512,-0.011221,-0.087358,0.117948,-0.066094,-0.044542,0.024224,-0.016246,0.134721,0.062907,-0.104101,0.064141,-0.085273,-0.141384,0.068777,0.060014,0.019368,0.119145,-0.107888,0.033101,0.064589,0.020170,-0.079878,-0.035399,-0.004539,-0.026593,-0.072309,-0.044108,-0.060916,0.074460,0.045965,0.010565,-0.032648,-0.011256,0.053578,0.039051,-0.024992,0.055076,-0.050963,0.006621,0.119242,-0.132325,0.002389,-0.029228,0.062356,-0.118371,-0.062529,0.098700,0.061559,-0.142715,-0.095793,0.044189,0.029824,-0.057479,-0.110575,0.145987,0.135403,0.078336,-0.002640,-0.058284,0.155063,0.063136,-0.119042,0.064983,0.031930,-0.148987,-0.013422,-0.100295,-0.022223,0.031424,0.118198,0.061625,0.020239,-0.115249,0.107864,-0.003188,0.004353,0.037673,0.042956,0.012537,-0.115016,0.043403,-0.060135,-0.055866,0.112997,-0.022699,-0.019310,0.170890,0.039484,0.036599,-0.158743,0.147435,-0.021177,0.115013,0.040656,0.055471,-0.001549,-0.079627,-0.001350,-0.168335,-0.130948,0.067538,0.009856,0.017765,0.008295,0.021142,-0.032605,-0.021523,0.084001,0.017194,-0.120112,-0.021782,-0.128844,-0.152538,0.153177,-0.009302,-0.065787,0.008338,0.063013,-0.028737,-0.055536,0.066970,-0.107469,0.003874,0.004503,-0.007354,0.120764,-0.029965,0.009889,-0.059634,-0.113252,0.073954,-0.080793,-0.030571,-0.019718,0.023892,0.093914,0.034291,-0.038383,0.020019,-0.023919,-0.108743,-0.048135,-0.062130,-0.103371,0.143963,0.030629,0.046717,-0.022628,0.042274,-0.040003,-0.097466,0.030559,-0.039776,-0.017573,-0.118267,0.045223,0.103820,-0.076123,0.051183,-0.074884,-0.023540,0.057363,-0.074992,0.007803,-0.045587,-0.131517,-0.008473,0.074957,-0.093146,-0.103326,-0.029764,0.033897,0.029086,-0.006797,0.083751,0.064155,0.027605,0.022340,0.028546,-0.071345,-0.095169,0.069548,0.036779,-0.033833,0.034888,-0.015594,-0.029922,0.050187,-0.068409,-0.073812,0.003517,-0.112648,-0.098465,-0.024007,-0.030528,-0.059288,0.003538,0.070558,0.065648,-0.049757,0.040908,0.090730,0.008812,0.045523,-0.002872,-0.051470,-0.000640,0.004988,0.056109,-0.026928,0.040131,0.015800,0.011757,0.016446,0.020488,0.037430,0.120735,-0.113527,0.053294,-0.118715,0.079126,0.017166,0.000259,0.051868,-0.099000,-0.105376,0.021299,-0.002787,0.035977,-0.113246,0.056967,-0.028394,-0.028517,0.024772,0.115366,0.043083,0.126555,-0.114695,-0.057931,-0.091074,-0.101530,0.059009,0.014657,0.018710,-0.018765,0.018156,-0.090118,0.006802,0.061412,-0.010858,-0.005553,0.002783,0.005710,-0.004716,-0.046255,0.091180,-0.023250,0.018683,-0.020764,-0.078346,-0.006611,0.041763,-0.006675,0.132674,0.019508,-0.066312,-0.069004,-0.089968,-0.055673,-0.027049,0.057466,0.017505,0.121341,-0.060221,0.059731,-0.070491,0.076161,-0.028077,-0.090980,0.078707,0.012077,-0.038574,0.019100,-0.051150,0.043098,-0.073393,0.008773,-0.041599,-0.066254,0.044304,0.008247,0.035929,0.024444,-0.076877,0.030624,0.080920,-0.083688,-0.084776,0.053374,0.079820,-0.110426,-0.095287,-0.054379,0.098874,-0.107396,0.041003,0.077897,0.013697,-0.060788,0.032989,-0.035396,0.111743,0.088197,-0.048211,0.040603,0.026980,-0.032038,-0.099417,0.036837,0.033668,0.030219,0.000850,-0.040896,-0.010447,0.024202,0.110597,0.135611,0.021975,-0.046280,0.073588,-0.032495,0.033085,0.052451,-0.002412,0.006686,0.060510,0.001091,-0.068780,0.000944,0.020422,0.053349,0.033129,-0.017516,-0.035882,0.057372,-0.047323,0.031577,-0.090237,-0.018414,-0.031306,0.070373,-0.011927,-0.002334,-0.023443,-0.018174,0.020177,0.013699,-0.015735,0.069601,0.026453,-0.030146,-0.108493,0.005420,0.100853,-0.022675,-0.122388,-0.020857,-0.111268,-0.151656,0.133194,0.058142,-0.026933,0.019274,-0.002511,0.062399,-0.097878,0.084305,0.042436,0.020377,-0.024616,-0.116767,0.037201,0.104674,-0.043187,0.033913,-0.051588,-0.025400,-0.063259,0.029516,-0.066270,-0.123907,0.109110,0.050815,-0.032169,0.049034,0.014334,0.038421,0.023579,-0.000337,-0.041481,0.015418,-0.124824,0.093526,-0.011663,0.085699,-0.141570,0.038414,-0.012473,0.022503,-0.071275,-0.016116,-0.046795,0.080169,-0.066292,-0.021915,-0.087884,-0.006397,0.182410,-0.024294,0.074578,0.035649,-0.130941,-0.095033,0.121588,-0.050001,-0.104023,0.051869,0.184340,-0.111299,-0.135959,0.132709,0.011602,-0.004807,-0.034370,-0.022838,0.025857,-0.072401,0.043756,0.094322,0.048957,0.073704,0.036703,-0.088912,0.099457,0.085320,-0.037199,0.049111,-0.072767,-0.090264,-0.199773,-0.072341,-0.106758,0.096654,-0.012246,0.088507,0.035383,-0.002148,0.088876,0.027712,0.038582,-0.005936,-0.043154,-0.058014,0.076421,-0.103843,-0.109656,0.026832,0.129953,0.020590,-0.085084,0.084892,0.131207,0.063544,-0.125471,0.031930,-0.133278,0.088831,-0.051365,0.123118,-0.021866,-0.060765,-0.059326,-0.100142,-0.074451,0.020653,-0.086783,0.057792,-0.113264,-0.104205,0.004632,0.013102,0.127732,0.035126,-0.138625,0.054923,-0.101460,-0.078552,0.146073,-0.006713,-0.046144,-0.079164,-0.154540,-0.065761,0.013475,-0.051119,0.035423,-0.013391,-0.012582,-0.152523,0.050212,0.073570,-0.015714,-0.046619,-0.033301,0.033184,-0.102954,0.048090,-0.025295,-0.175956,0.042538,0.039947,-0.030223,-0.029066,-0.036739,-0.049270,0.037009,-0.065840,-0.103814,0.085080,0.013138,0.058285,-0.131491,0.038631,-0.116713,-0.006227,0.025618,-0.116477,0.074799,-0.070597,-0.005840,0.111181,-0.077485,-0.045479,0.036570,-0.005484,-0.026594,-0.133068,-0.033538,0.076490,0.015152,-0.032735,0.092905,-0.081696,-0.070392,-0.053370,0.081508,-0.167182,-0.099600,0.040573,0.070560,-0.132434,0.071856,-0.014468,0.061730,-0.080612,-0.056121,0.091013,0.140030,0.049908,-0.030313,-0.133587,0.089537,-0.020379,-0.129017,0.077381,-0.020142,-0.150042,-0.158989,-0.063740,-0.003368,0.011543,0.068841,0.012434,-0.040832,0.009556,0.111114,0.039501,0.065961,-0.028240,-0.034839,-0.142526,-0.011939,-0.106816,-0.057975,0.008398,0.028120,0.010193,-0.075867,0.041744,-0.018846,0.080881,-0.006480,0.058369,-0.061452,0.036918,-0.118770,0.112943,0.053025,0.011210,-0.104748,-0.033869,0.023113,0.007043,-0.074273,0.104685,-0.016780,-0.109026,-0.059338,0.074225,0.084275,0.050262,-0.059029,0.061781,-0.127776,0.017091,0.081896,-0.098391,-0.048691,-0.076804,-0.128299,-0.012564,-0.070795,0.069080,-0.027888,0.037113,0.004753,-0.019653,0.039737,0.108619,0.003167,-0.086764,0.014193,0.089713,-0.108129,0.004823,0.058334,0.038368,0.097417,-0.045755,-0.097326,0.006079,-0.153307,-0.035108,0.016679,-0.023241,-0.085040,0.071416,-0.041438,0.046574,-0.095064,-0.028854,-0.089989,-0.135191,0.165730,-0.072944,0.061494,0.079503,-0.038499,0.171505,-0.098918,-0.006399,-0.042818,-0.049787,0.151785,-0.120658,0.027326,-0.057645,-0.004993,-0.073033,0.162217,0.028194,-0.015975,-0.035409,0.099214,-0.097547,-0.161562,0.009206,0.022206,-0.119522,0.015560,0.069254,0.029649,-0.068099,0.007264,0.179724,0.131628,0.163075,-0.009575,-0.049166,0.148564,-0.060361,-0.035087,-0.042919,0.031092,-0.078557,-0.113547,0.043135,-0.044978,0.032918,0.148013,-0.032914,-0.056702,-0.082632,0.122285,0.018106,-0.002180,-0.109866,-0.070601,-0.048602,-0.022110,-0.094014,-0.128079,0.101672,0.088729,0.037312,0.083818,0.120973,-0.028779,0.087512,-0.147483,0.074008,0.033937,0.025884,-0.027837,-0.010978,-0.017871,-0.110332,-0.085239,0.046824,-0.104024,0.055772,-0.056265,0.014507,0.009979,-0.044963,-0.058383,0.090988,0.209984,0.108492,-0.073707,0.096856,-0.069805,-0.087455,-0.050107,-0.042388,-0.102871,-0.069989,-0.047393,0.011657,0.041888,-0.013406,0.020871,-0.077809,-0.038813,-0.119847,0.025994,0.054735,-0.039931,0.001451,0.025484,0.051566,-0.064630,-0.046503,-0.031420,0.023321,0.025154,0.017909,-0.018052,0.015949,-0.157986,-0.039381,0.049788,0.041365,-0.019444,0.123338,-0.003086,0.071315,0.072706,0.027128,-0.094752,-0.133792,0.058566,-0.147342,0.034734,0.035222,-0.012487,0.069761,0.013530,0.108728,0.002787,-0.063752,0.028022,-0.082800,-0.043597,0.005418,0.053467,-0.009153,0.081723,0.003915,-0.000284,-0.015191,0.074035,-0.103119,-0.104123,0.042547,0.015443,-0.122005,-0.015730,0.054155,-0.019991,-0.025672,0.060311,-0.006438,0.118286,-0.022552,-0.017713,-0.092041,0.092121,0.044014,-0.024910,0.022982,0.053309,-0.035793,-0.035230,0.017386,-0.017137,-0.072973,0.117086,0.078806,-0.007082,-0.059269,0.125048,-0.046039,0.012747,-0.028393,-0.043158,-0.093231,-0.061087,-0.107948,-0.117258,0.034703,0.056945,-0.005930,0.075994,0.054263,0.025125,0.065653,-0.057821,0.119854,-0.045179,0.014851,0.121866,-0.007806,0.009189,0.007925,0.078478,-0.009745,-0.010279,0.117566,0.007267,0.015011,0.112205,-0.011070,-0.102023,0.054056,0.112917,-0.019846,-0.085129,0.132115,-0.028039,0.059354,0.032130,-0.078062,0.051265,0.068065,-0.119690,0.007696,-0.060116,0.098552,0.088738,0.065963,0.026675,-0.032430,0.142465,0.073148,0.057281,-0.085631,0.001874,0.089256,-0.087217,-0.006061,0.056395,-0.050211,0.019856,-0.082778,-0.044802,0.001777,-0.100710,0.124929,0.143558,-0.041713,-0.099672,0.160509,0.059382,0.007769,-0.039207,0.102810,-0.152654,-0.089261,0.163030,-0.045453,-0.030496,0.074762,-0.065959,0.000886,-0.018413,0.023821,-0.171147,0.054207,-0.064184,-0.047009,0.043223,-0.003826,0.074643,-0.087795,0.044386,-0.228544,0.002130,-0.091925,0.119337,-0.007602,-0.074493,0.010080,0.095666,0.021659,0.103948,0.065952,-0.027647,0.095288,0.093864,-0.119602,0.006124,0.045034,0.075163,0.006209,0.105535,0.015247,-0.087892,0.054408,-0.031645,-0.057709,-0.060335,-0.104126,-0.011531,-0.036944,-0.014858,-0.023052,0.074734,0.170274,0.006194,-0.093460,-0.061870,0.019016,0.102955,0.009342,0.115278,-0.108195,-0.068319,0.086641,-0.020440,0.032000,-0.071974,0.003714,-0.113019,0.027707,0.073865,0.031794,-0.019340,-0.082644,0.104279,0.004285,0.074220,-0.112108,0.094910,-0.063399,-0.124223,0.039802,-0.012321,-0.110364,-0.026021,0.093048,-0.022734,-0.063747,0.017575,-0.048503,-0.073774,0.119488,-0.061130,-0.010089,-0.101690,0.083520,-0.077670,0.012352,-0.058340,0.095828,-0.052931,0.049886,0.084609,0.006306,0.099561,0.056100,0.026620,0.074015,0.061777,0.005790,-0.000134,0.168695,0.144472,-0.073651,-0.068780,-0.028797,-0.019870,0.043034,-0.078128,0.035006,-0.062588,-0.022342,0.100304,-0.071191,0.022167,0.029269,-0.083796,-0.079376,-0.151369,0.044723,0.008711,-0.009469,0.032633,-0.061993,0.064615,-0.008808,0.003524,0.067843,-0.147504,0.000895,0.048127,-0.035161,-0.004300,-0.025750,-0.096904,-0.004922,-0.100977,-0.076033,0.063126,-0.143079,-0.026784,-0.080139,0.169289,-0.157376,-0.168385,0.205496,-0.055681,-0.046928,0.048160,0.070168,0.054850,-0.112350,-0.116874,0.098649,0.026816,0.097544,-0.045587,-0.120300,-0.005191,-0.055725,-0.067218,0.042773,0.007514,0.046774,-0.108247,-0.113129,-0.053567,-0.022123,-0.035510,0.181862,-0.032279,0.063364,-0.109060,-0.001946,-0.048980,-0.044146,-0.052688,0.057232,-0.121840,-0.203572,-0.068074,0.092206,0.115039,-0.099315,0.060887,0.138122,0.140757,-0.020431,-0.137101,0.056024,-0.010103,0.104956,-0.038853,0.049863,0.138622,0.002546,0.079518,-0.135655,-0.013508,-0.033548,-0.033043,0.077817,-0.185739,0.100384,-0.028861,0.122322,0.061612,0.111286,-0.009770,0.125152,-0.127718,0.024347,0.029080,0.032604,0.045081,0.043302,0.020810,-0.043014,-0.107741,0.162449,-0.098621,-0.108538,0.093395,-0.121468,0.024289,0.159576,-0.029671,0.104354,0.014031,0.290137,0.023833,0.007840,0.042317,-0.077569,-0.017558,0.034753,-0.129140,-0.016818,-0.048218,-0.009013,0.141680,0.009492,-0.056812,0.027443,-0.128214,-0.027707,-0.031387,0.048172,-0.097006,-0.132639,-0.025863,-0.160080,-0.053790,-0.003449,0.030802,0.158548,-0.089668,0.095653,0.007959,-0.108611,0.056765,-0.047263,-0.118231,0.037015,-0.105862,-0.124748,0.076524,-0.085697,0.024474,-0.078695,0.061722,-0.060200,-0.143780,0.109788,-0.079436,0.027400,0.007245,0.092959,-0.170981,0.054529,-0.103093,0.084466,0.154464,0.073380,0.029066,-0.099313,-0.057422,-0.072220,-0.093567,-0.050900,0.040798,0.090566,-0.079370,0.014040,-0.027976,0.049211,0.118363,0.050880,-0.061556,-0.093039,0.110904,-0.061859,0.015225,0.109503,-0.074994,-0.054771,0.056087,-0.077570,-0.118090,0.010975,-0.007617,0.016130,0.071783,0.066288,-0.018106,0.010914,-0.026315,0.230988,0.009844,0.137316,0.111462,0.208254,0.012394,0.060304,0.064212,-0.072842,0.081287,0.174435,0.040088,0.130260,-0.137687,0.004925,-0.018105,0.169564,0.164382,0.025317,0.044554,0.144650,-0.111861,0.048086,-0.012474,-0.087355,0.053449,0.031889,-0.046286,0.034052,-0.002001,0.108867,0.054832,0.125679,0.021499,-0.053344,0.141528,0.156481,-0.123419,-0.018662,-0.046100,0.104133,-0.072131,-0.093086,-0.015755,0.057284,-0.029083,-0.137146,-0.024964,0.049709,-0.103500,0.041054,0.088798,0.141613,0.095173,0.076626,-0.255960,0.078787,-0.073474,0.149693,-0.094901,0.012624,0.080732,-0.010001,0.012148,0.002076,-0.029407,0.112069,-0.038768,0.158550,0.013000,0.050612,0.150387,0.034085,-0.079106,0.045462,-0.208879,-0.008236,0.115732,0.015587,-0.000641,-0.050290,0.100524,-0.169225,-0.120848,0.039474,-0.034871,-0.109163,0.035883,0.049494,0.021134,0.007831,-0.005051,0.174644,0.206310,0.083689,0.052173,-0.200988,-0.042319,0.009580,0.038892,-0.058484,0.096516,0.056873,-0.046996,-0.099599,-0.217385,0.031387,0.084906,0.142706,-0.089439,-0.130795,0.035802,-0.001424,-0.042765,-0.033287,-0.103113,-0.111094,0.042175,-0.070542,-0.183491,-0.018719,0.038130,-0.024873,0.017511,0.190502,0.107646,0.100159,-0.078519,0.101161,0.021072,0.049204,0.006583,0.185015,-0.000152,0.059729,-0.024108,-0.071389,0.004551,0.048533,0.060381,0.212272,-0.169153,0.006738,0.021881,0.076339,0.279216,0.060316,-0.053255,0.048556,-0.104789,-0.014484,0.033487,-0.036875,0.068742,0.047655,0.003256,-0.105274,-0.010554,-0.019553,0.025722,0.123816,0.048605,-0.013488,0.116035,0.075470,-0.056965,0.040661,0.000134,0.046179,-0.095562,0.066496,0.024297,-0.041819,-0.075831,-0.115659,-0.035866,-0.126502,-0.204229,-0.022240,0.168562,0.119018,0.026339,0.146600,-0.230636,0.098510,-0.053183,0.116731,-0.125666,0.062024,0.006685,-0.035021,-0.037615,0.022151,-0.015902,0.133168,-0.043711,0.049198,-0.014781,-0.024940,0.121290,-0.014915,0.060202,0.056112,-0.212278,0.005726,0.130340,-0.080425,-0.087184,-0.003907,0.122237,-0.159480,-0.076108,0.060260,0.046681,-0.055193,0.057970,-0.071685,0.122321,-0.154452,-0.028204,0.097940,0.070439,0.028638,0.113044,-0.091209,-0.009603,0.153141,-0.103916,-0.041065,-0.020754,0.006576,-0.077342,-0.129913,-0.102666,0.186807,0.156347,0.215704,0.031443,0.032525,-0.006588,-0.026580,0.056058,0.057637,0.140904,-0.048827,0.004198,0.004804,-0.099830,0.020617,0.042921,-0.036571,0.034488,0.092225,0.134464,0.058117,-0.055813,0.114850,-0.042639,0.142611,-0.010213,0.091611,-0.006139,-0.025650,0.014820,-0.010463,-0.089383,0.053477,0.069102,0.120510,-0.039203,-0.127423,-0.120713,0.006331,0.186999,0.095763,-0.009969,-0.011188,-0.210320,-0.050911,0.105147,0.197727,-0.086922,-0.001426,-0.153343,-0.031513,-0.014787,-0.090778,0.083746,-0.115342,0.035317,-0.194410,0.085701,0.081697,0.004693,-0.034446,0.044026,0.045381,-0.074408,-0.029289,-0.021741,-0.133422,0.061527,0.064956,-0.162721,-0.023641,-0.033079,-0.007847,-0.024079,-0.041818,-0.008274,0.023830,-0.022631,0.014612,0.007893,0.112059,-0.256445,-0.128904,0.145298,-0.042027,0.048245,-0.105352,0.031694,0.181138,-0.146140,-0.072168,-0.009926,-0.060730,0.095153,-0.046652,0.037845,0.019413,-0.168033,-0.037705,0.111061,-0.039997,-0.106306,0.006849,0.010649,-0.175071,0.009380,0.041699,0.082818,-0.080834,0.045264,0.061603,0.080536,-0.142937,-0.006862,0.176394,0.113960,0.139661,0.012827,-0.190764,0.138252,0.210776,-0.122718,-0.014243,-0.139920,-0.107870,-0.048145,-0.066505,0.016189,0.048118,0.153208,0.209163,0.080156,0.025389,0.047190,-0.062422,-0.049494,0.010991,0.090503,-0.052337,-0.012723,-0.170907,-0.144744,-0.002929,0.154925,-0.019209,-0.118024,0.072430,0.065148,0.073388,-0.142790,0.032728,-0.086323,0.120529,-0.043641,0.153906,0.105284,-0.047337,-0.123495,-0.083547,-0.173274,0.056009,-0.122998,0.093470,-0.040546,-0.057283,-0.015986,0.153839,0.147845,0.131120,-0.183152,0.005821,-0.179258,-0.092162,0.107521,0.210727,-0.098730,0.063027,-0.099583,-0.036690,0.034014,-0.043888,-0.129770,0.112165,0.116623,-0.165834,0.193277,0.067787,0.101206,-0.066580,0.070360,0.064687,-0.049068,0.089851,0.049479,-0.120779,0.169535,0.149809,-0.058263,-0.062518,-0.006559,-0.085880,-0.008842,-0.059694,-0.069294,-0.004131,-0.005143,0.053005,-0.107485,0.182187,-0.165801,-0.154384,0.083966,-0.060609,-0.013898,-0.049471,-0.041509,0.252017,-0.109927,-0.039758,-0.097378,-0.084691,0.232289,-0.075825,-0.041691,-0.007123,-0.038972,-0.155583,0.209234,-0.164792,-0.067034,0.014138,0.074521,-0.163114,-0.186857,0.234654,0.149103,-0.198482,0.092424,0.036462,0.125454,-0.179808,-0.008288,0.164937,0.134405,0.252982,0.164890,-0.162890,0.000257,0.119145,-0.098555,0.015606,-0.153804,-0.046178,-0.068088,-0.164192,0.010951,0.146007,0.157847,0.127057,0.263715,0.056798,0.140906,-0.067635,0.048416,-0.123989,0.074304,-0.062736,0.018148,-0.067024,-0.164849,-0.030638,0.200842,-0.061530,-0.052172,0.095751,0.125549,0.009651,-0.155860,0.120202,-0.144886,0.179888,-0.055076,0.260711,0.146661,-0.026971,-0.077376,-0.237777,-0.113931,0.119399,0.021486,0.218171,-0.051196,-0.086596,-0.131394,0.138697,0.149940,0.174660,-0.083982,0.045838,-0.104204,-0.164908,0.166693,0.208290,-0.015435,0.011187,-0.033188,-0.096521,-0.069863,-0.205040,-0.081626,-0.054339,0.087566,-0.248896,0.095105,0.049020,0.066173,-0.009788,-0.074287,0.222698,-0.080603,0.116448,-0.014681,-0.176177,0.102707,0.211889,-0.140207,0.005367,-0.117330,-0.050496,0.138060,-0.059237,-0.157744,0.072660,-0.008817,0.213752,-0.203865,0.158281,-0.227843,-0.161763,0.099793,-0.077809,-0.069411,-0.113968,0.037509,0.141184,-0.107463,-0.042467,-0.055837,-0.074145,0.085831,-0.039208,0.026714,0.046478,-0.070150,-0.099097,0.118667,-0.074878,0.004318,-0.029880,0.043520,-0.153633,-0.156045,0.130148,0.097697,-0.045651,-0.011528,0.027049,0.129717,-0.057377,0.083605,0.011386,0.028739,0.191135,0.118370,-0.075564,-0.034610,0.028985,-0.078319,-0.051497,-0.077287,-0.104412,-0.058067,-0.098344,0.055179,0.121171,0.018686,-0.021860,0.092362,0.095521,0.184826,0.040977,-0.017383,0.013833,0.072323,-0.120684,-0.017026,0.009546,-0.124825,0.011477,0.062770,-0.047365,-0.058136,0.103147,0.111438,-0.017312,-0.088760,0.089800,0.011690,0.014350,-0.053480,0.152993,0.011435,-0.007038,-0.114756,0.002312,-0.089391,0.073351,-0.040196,0.144230,-0.066812,-0.094070,-0.055420,0.005186,0.104504,0.016778,-0.074274,-0.052927,-0.015016,-0.125789,0.039438,0.134198,-0.018038,0.034101,0.010284,0.038064,0.034160,-0.049127,-0.078609,0.029261,0.097809,0.015932,0.002003,0.039085,0.077819,-0.059094,-0.051748,0.057031,-0.033473,0.016584,-0.079240,-0.013069,0.126710,0.067705,-0.046280,0.030614,-0.106943,0.015428,0.077511,-0.062789,-0.100148,0.012112,-0.072857,0.048161,-0.075098,0.094398,-0.124784,-0.083328,0.145296,-0.150201,-0.023791,-0.013320,-0.046669,0.055402,-0.006579,0.007383,-0.083315,-0.001304,0.125915,-0.103783,0.059305,0.054980,-0.100669,-0.019472,0.078333,-0.046792,0.031109,0.007613,0.030322,-0.083279,-0.125115,0.102451,0.109046,-0.015621,0.006504,0.028718,0.028586,-0.128817,-0.087669,-0.029195,0.114275,0.006468,0.094299,-0.079906,-0.003332,0.008220,-0.009992,-0.024682,-0.096064,-0.017032,0.020326,-0.065186,-0.026861,0.044886,0.074319,0.060886,0.040145,-0.068147,0.108422,-0.029872,0.015249,-0.063771,-0.001007,-0.075296,-0.111952,-0.015263,-0.056583,-0.024368,-0.026996,-0.044098,-0.031821,0.021609,0.133993,-0.052948,-0.118413,-0.003718,-0.015436,0.002888,-0.017703,0.127497,0.032820,-0.026035,-0.100961,-0.130641,0.007378,0.042571,0.038459,-0.011009,-0.043017,-0.096114,-0.024744,0.110042,0.062450,0.114320,-0.075834,0.055544,0.006515,-0.077707,0.125433,0.099895,0.030404,-0.054226,0.065214,-0.059669,0.069293,-0.119794,0.025354,0.091647,0.019000,-0.133163,-0.009685,0.018365,-0.028075,-0.080720,0.052298,0.095812,0.022701,0.037410,0.039061,-0.131091,0.035787,0.142945,0.014601,-0.042605,0.008695,0.001876,0.028625,-0.033616,-0.012587,0.062506,0.046900,0.121455,-0.066279,-0.022397,-0.137446,0.072724,0.078128,-0.067660,0.042919,0.031876,-0.022767,0.071374,-0.029490,0.012191,-0.059602,-0.078571,0.133925,-0.148359,0.012950,0.003301,-0.080885,-0.014198,0.018176,-0.073979,-0.007961,-0.001997,0.041818,-0.098439,0.021404,0.064568,-0.033992,-0.063817,-0.123581,0.000452,0.047193,-0.033178,-0.068798,0.091939,0.076112,0.032806,0.112709,-0.004425,0.062929,0.076678,-0.120502,0.009671,-0.047595,-0.142793,-0.010435,-0.083504,-0.061815,0.076338,0.059832,-0.056896,0.013596,-0.007798,-0.017712,0.020214,-0.066220,-0.081297,-0.045898,0.015520,-0.110578,-0.018799,0.003607,0.007176,0.060683,0.069193,-0.057474,0.057544,0.036272,0.078247,-0.120083,0.086965,-0.077184,0.027347,-0.063369,0.095501,0.119450,-0.065015,-0.093055,-0.147013,-0.043234,0.014456,-0.019892,0.070180,-0.000459,0.002235,0.050713,0.103969,0.053314,0.127269,-0.005709,0.027641,-0.076252,-0.082024,0.023354,-0.025939,-0.045025,-0.079539,0.002508,0.067749,-0.074525,-0.049524,-0.135512,0.052001,-0.059308,-0.131544,0.060297,0.048482,-0.012691,-0.033767,0.022664,0.049291,-0.036208,0.015904,-0.016591,-0.043480,0.113608,0.113336,-0.018989,-0.001025,-0.063641,-0.088619,0.006750,-0.059467,-0.050708,0.005945,0.067767,0.136017,-0.127775,-0.065907,-0.080020,0.024064,0.090655,-0.009991,0.079922,-0.064485,0.040371,-0.053959,0.031228,0.073139,0.080267,0.045419,-0.070688,-0.001738,-0.038191,0.014035,-0.063057,0.044050,-0.003745,0.008880,-0.039844,-0.059820,0.063900,-0.056983,0.043400,0.069182,0.013999,0.051868,0.061772,0.066189,0.080889,-0.028490,0.078390,0.076630,-0.024582,-0.070309,-0.009552,0.062302,0.014573,-0.020660,0.006024,0.068568,0.006641,-0.001350,0.068608,-0.009613,0.023005,0.027741,-0.016244,0.078929,-0.074854,-0.039981,0.079208,-0.080477,0.035838,-0.070892,-0.064089,0.021058,0.061535,0.044503,-0.026072,-0.036119,-0.058406,0.055869,-0.078453,-0.078697,-0.077112,0.077994,-0.008713,0.060101,0.013733,0.053507,0.028431,0.069125,0.035687,0.081018,-0.003775,0.068353,-0.064786,0.046609,0.064396,0.075578,0.041343,-0.051876,-0.065498,0.029827,0.036756,-0.049673,-0.080172,0.051729,0.026153,0.033425,0.005862,-0.072687,0.035955,0.066326,0.052501,-0.037162,-0.010046,-0.067863,-0.040062,0.022140,0.005996,-0.040919,0.007986,-0.049885,0.076786,-0.029255,-0.037897,0.077738,0.067342,-0.045896,0.031906,-0.017758,-0.077052,0.028856,-0.029676,0.033221,0.050607,0.002444,0.035769,-0.023896,-0.053522,-0.012117,-0.028334,0.035284,0.007674,-0.020940,-0.053619,-0.075635,0.043082,-0.017883,-0.039119,0.030720,0.046879,0.042329,-0.012184,0.022442,-0.020418,0.011352,0.074635,0.060202,0.039832,-0.015392,-0.008804,0.000190,0.004592,0.045593,-0.076183,0.043186,-0.030223,0.036686,-0.072024,0.015987,-0.019699,0.022277,-0.069912,0.014650,-0.003283,-0.012393,0.071309,-0.002424,0.059683,-0.060681,0.030617,-0.074113,0.019499,-0.008954,0.003540,-0.030690,-0.068648,-0.074152,-0.031500,-0.022232,0.079334,-0.043018,-0.022233,-0.037753,0.005388,0.019273,-0.010629,0.019684,0.007218,-0.031125,0.061660,0.029788,-0.078539,-0.045420,-0.015550,0.056098,0.063316,0.066054,-0.080305,0.074728,0.008640,-0.041515,0.051362,-0.060265,-0.001738,0.075838,-0.054931,0.019978,0.025880,-0.029284,0.036055,0.012272,-0.000136,-0.070907,-0.028014,-0.021423,-0.027803,-0.000065,-0.053475,0.005883,0.010311,0.020603,0.020089,0.069613,0.027805,-0.012814,0.033266,0.029770,-0.026657,-0.058492,0.028825,0.026970,0.015107,-0.021222,-0.041779,0.074675,-0.011537,-0.013443,-0.080818,-0.003887,0.003843,-0.070858,-0.043422,-0.022230,0.019815,-0.076815,-0.011577,-0.026811,-0.063177,0.072497,0.024435,-0.027365,-0.010883,-0.021638,0.027178,-0.028206,-0.021574,-0.051269,0.080534,-0.063104,-0.050462,-0.049012,-0.050757,0.015383,-0.009527,-0.072022,-0.072990,0.016572,0.039828,0.032640,-0.052211,-0.058419,0.059551,0.038365,-0.040900,-0.048906,0.005829,0.073906,-0.039919,-0.032376,-0.007617,-0.010005,-0.009732,0.011734,-0.044738,0.036086,-0.039173,-0.008527,-0.029245,0.032443,0.067434,-0.058063,-0.067618,0.072396,0.019276,-0.037630,0.058560,-0.073848,0.009685,-0.010150,-0.059409,-0.036286,-0.077710,0.025259,0.039038,0.045226,0.003481,0.018196,-0.019618,-0.080125,0.078924,0.057955,0.076427,-0.033858,0.042202,-0.047041,0.025442,-0.078271,-0.011253,0.056357,-0.070230,0.001974,-0.068771,-0.050030,0.039926,-0.003992,0.006015,-0.008075,-0.000689,-0.021633,0.073703,0.073004,0.003473,0.064934,0.001055,0.051170,-0.048006,0.024879,-0.057678,0.057991,0.043809,0.020327,0.048366,0.048631,-0.022238,0.029457,-0.060973,-0.063159,-0.056785,-0.002114,-0.009862,0.066020,0.074257,0.019045,0.058188,0.035209,0.014094,0.034965,-0.069283,-0.077007,0.004405,0.006334,-0.039021,0.080757,-0.057164,-0.073326,-0.011119,0.018448,0.011197,-0.013495,0.057901,0.077243,-0.071968,-0.042106,0.066940,-0.025377,-0.061713,0.001876,0.059290,-0.034179,-0.054882,-0.045721,0.006044,-0.062024,0.066220,0.046521,-0.069782,-0.070943,0.017847,-0.020716,-0.008287,0.045145,-0.051428,-0.044398,-0.079405,-0.011433,-0.000355,-0.002794,0.078589,0.033768,0.056566,0.047572,-0.048950,-0.017227,-0.017969,0.040801,0.059323,-0.068096,-0.001148,-0.070477,0.075578,0.011345,-0.048944,0.018372,-0.004830,0.071046,-0.018401,0.000802,-0.003055,0.012632,-0.071768,-0.037797,0.043598,0.035457,-0.021651,0.047293,-0.030451,-0.022950,-0.019364,0.021737,0.058955,-0.040995,-0.006545,0.016859,0.023811,-0.001017,-0.034433,-0.041911,0.079269,-0.060159,-0.071383,0.060411,-0.019603,0.016215,0.069142,-0.051912,0.012030,0.076029,0.029844,-0.015306,-0.069677,0.030507,0.004378,-0.038742,0.031420,-0.038665,-0.042568,0.017102,-0.075804,0.012177,0.074705,0.055088,-0.062139,0.004359,0.009591,-0.039486,-0.072800,-0.059835,0.070073,-0.038312,-0.031899,-0.080312,-0.053433,-0.049271,-0.062908,0.049885,0.028337,-0.005612,0.041820,0.018314,-0.071021,-0.074118,-0.024066,0.064745,-0.029777,0.059989,0.080455,0.002857,-0.003990,-0.049114,0.036257,-0.057224,0.066862,-0.072562,0.032714,-0.073903,0.041936,-0.060115,-0.018743,-0.038789,0.003064,0.017237,-0.064459,0.053861,0.078766,0.074265,-0.014582,-0.072827,0.003648,0.055668,-0.018356,0.027297,-0.033975,-0.026712,0.038094,0.037252,-0.058201,0.033433,0.038486,-0.032338,0.038079,-0.068420,-0.039955,-0.012723,0.050501,0.044437,-0.073770,-0.018623,0.041184,0.053325,-0.054964,-0.014455,-0.079383,-0.001521,-0.054193,-0.000374,0.013319,-0.075107,0.042578,0.062925,-0.043154,0.004706,-0.037701,0.020392,0.074175,0.064280,-0.043612,0.073173,0.011918,-0.019885,-0.080957,0.049806,0.050758,0.046341,0.055141,-0.050656,0.022396,-0.003578,0.017084,0.062434,0.017444,0.023906,0.067821,-0.016575,-0.066213,0.031439,-0.050198,-0.001057,-0.003469,0.011457,-0.044806,0.046529,-0.079836,0.052957,-0.044143,-0.051562,-0.041152,-0.034262,0.034741,0.023584,-0.055726,-0.076564,0.014199,0.030889,-0.012358,0.012398,-0.063196,0.018128,0.017049,-0.036118,0.019328,0.032267,0.004847,0.074979,-0.074929,-0.030453,0.002079,0.058622,-0.053126,0.040712,0.021595,0.003715,-0.074135,-0.013442,0.016735,0.038540,0.076147,-0.007126,-0.041013,0.055925,-0.046487,0.052074,0.041895,0.013722,0.063808,0.038213,-0.053989,-0.004988,0.020444,0.047781,0.046202,0.001157,-0.079591,-0.010895,-0.015401,0.002491,-0.043693,-0.004854,0.041429,-0.048654,-0.033213,-0.026579,0.034800,-0.016007,-0.056316,-0.017187,0.074144,0.027331,-0.048761,-0.056210,-0.054561,0.047533,-0.016496,-0.046379,0.078066,0.015148,-0.015109,0.070962,-0.028202,0.070315,0.019138,0.037451,0.033614,0.054323,-0.068196,-0.061530,0.011398,-0.051103,0.015406,-0.049267,0.069453,-0.036714,0.029318,-0.019433,-0.055988,-0.079228,0.023379,-0.046300,0.052150,0.001259,-0.056631,0.015362,0.067952,0.068446,-0.079049,-0.027275,-0.079770,0.020134,-0.079497,0.058779,0.019543,0.030084,0.073817,-0.024129,0.042566,-0.038298,0.068703,0.006745,0.074158,0.050173,0.078675,-0.078182,-0.001059,-0.069549,-0.046840,0.052552,0.038312,-0.016789,0.024121,-0.021355,-0.073177,-0.034462,0.074996,-0.043836,0.031132,0.064773,-0.032586,-0.035274,0.011313,-0.056456,0.062287,0.029805,0.033501,0.000806,-0.038321,0.071151,-0.068842,0.078347,0.069526,-0.036493,-0.018874,-0.064822,0.012140,-0.004007,0.041906,0.036403,-0.042400,0.064495,0.053257,-0.012178,0.070759,0.003010,-0.043021,-0.068225,-0.076817,0.043168,-0.065435,-0.005775,-0.080370,0.052909,-0.034980,-0.002934,0.072655,-0.054338,0.050255,0.053924,-0.056589,0.034924,-0.079510,0.031890,0.045054,0.041098,-0.026035,-0.055937,-0.012749,0.001150,-0.023864,-0.015552,-0.057999,0.060396,-0.005826,0.026314,0.061167,-0.048564,-0.036036,0.020137,-0.005201,0.076296,-0.073951,-0.020151,0.020130,-0.017942,-0.064278,-0.041162,-0.061135,-0.044712,0.013441,0.060589,0.027611,-0.023318,0.069649,0.057154,-0.040959,0.024691,-0.007677,-0.009973,-0.039904,-0.058535,-0.072923,-0.023259,-0.078599,-0.066653,-0.073579,-0.011118,0.012246,0.030105,-0.070143,0.019201,-0.057913,-0.033212,0.001784,-0.074037,0.056346,0.028892,-0.058271,-0.000148,-0.035293,-0.046227,-0.022922,-0.051035,-0.055080,0.065072,-0.004862,-0.024870,-0.049502,-0.039547,-0.045195,-0.077573,-0.069966,-0.018386,0.024176,0.075125,0.045265,0.064739,-0.049686,0.065843,-0.060907,0.066595,0.016432,-0.058422,0.004164,-0.023363,-0.029808,-0.082795,0.012602,0.001801,0.029738,0.028566,-0.072972,0.083251,0.063538,0.055477,0.002233,0.001488,0.007867,0.019658,0.068552,0.017845,0.041017,-0.057895,-0.010108,0.024780,-0.028876,0.078363,-0.014425,0.086910,0.063128,0.056019,-0.037632,-0.003557,0.045308,0.066843,0.001460,0.027310,0.013154,-0.038910,0.002675,-0.020739,0.025260,0.019555,-0.041188,-0.020035,0.062678,-0.053866,-0.040977,-0.008032,0.067145,-0.045657,0.018905,0.058800,-0.008153,0.078356,0.044432,-0.033932,-0.054997,0.059923,-0.063309,-0.043076,-0.035811,-0.067699,0.059906,0.012665,0.052981,-0.055391,0.025332,-0.012502,-0.056467,0.077824,0.020935,-0.064090,0.008109,-0.063640,0.009519,0.014748,0.026279,0.061779,0.020806,0.023309,0.124973,-0.002213,0.049323,0.056056,-0.126536,0.051177,0.032714,-0.014538,0.015121,0.031381,0.016262,-0.123813,0.147651,0.080922,0.060904,-0.093355,0.058008,-0.121112,0.073673,0.117620,-0.126737,0.000998,-0.046709,0.091178,-0.032670,-0.089012,-0.097721,0.125131,0.038408,0.054183,-0.008641,-0.106409,0.080976,-0.129399,0.068977,0.026486,0.076301,-0.067019,-0.058735,-0.017190,0.009053,-0.016925,0.003436,0.029078,-0.088600,-0.066070,-0.041054,-0.003948,0.017214,-0.035398,0.005416,0.045376,-0.138505,-0.097850,-0.007683,-0.037957,0.103893,0.009005,-0.027026,0.011671,-0.108279,0.005525,-0.158566,0.096268,0.022774,0.127958,-0.079883,0.028106,0.041305,-0.000534,-0.079551,0.078842,0.135060,0.092402,-0.013426,0.049660,-0.072288,0.000648,0.146023,0.021150,0.028743,-0.035327,-0.043489,0.036374,0.046835,-0.073071,0.039845,0.046885,0.017844,-0.057774,0.062508,0.069335,0.051606,0.134991,-0.004638,0.013634,0.096148,-0.121537,0.092712,0.012917,0.008258,0.026551,0.000273,-0.044199,0.009570,0.091727,0.064363,0.063864,-0.014332,-0.016800,-0.011908,0.002427,0.024770,0.083563,0.083675,0.013888,-0.142390,0.055268,0.096154,0.036493,-0.012147,-0.016430,-0.028296,-0.024984,0.054260,-0.128538,-0.034556,0.094045,0.003069,0.120902,0.077939,-0.038234,0.015513,0.080715,0.097523,-0.089310,0.026047,0.004304,-0.041366,-0.019500,0.160544,0.024946,-0.120945,-0.096961,0.025217,-0.155385,-0.089954,0.074205,-0.070383,-0.128466,-0.066468,0.089605,-0.085132,-0.188127,-0.094569,0.193215,0.153448,0.168934,-0.012290,-0.059030,0.060993,-0.038275,-0.085238,-0.036566,-0.060263,-0.117565,-0.069338,0.009191,0.128985,-0.118904,0.036288,0.019602,0.019486,-0.015016,0.100242,0.065874,-0.055345,-0.134244,-0.032393,-0.140345,-0.143313,-0.067512,-0.156623,0.039424,0.069073,0.006997,0.008735,0.035625,0.053495,0.001132,-0.164977,0.033769,-0.024404,0.074455,-0.094958,0.138564,0.093276,0.049839,-0.161809,0.072267,0.082373,-0.048156,-0.105711,-0.027876,-0.089279,-0.001794,0.033091,0.028826,0.032815,0.149755,-0.054957,0.053941,-0.023139,-0.175661,0.001484,0.061856,-0.038690,-0.089967,-0.073610,-0.063476,0.065060,0.110230,-0.095929,-0.055899,-0.040468,-0.102639,0.049153,-0.112082,-0.006015,-0.102524,-0.059128,-0.017167,-0.150986,0.015399,-0.074418,-0.010493,-0.000074,0.180478,-0.068367,-0.063901,-0.034679,0.035572,-0.012908,0.009558,-0.148366,0.000732,0.133154,0.013126,0.011438,0.098863,-0.075707,-0.058814,0.074676,-0.012391,-0.003191,-0.037797,-0.024865,0.089290,0.049171,-0.030525,-0.076418,-0.025213,0.099185,0.033606,0.064741,0.038915,-0.054635,-0.021999,0.129931,-0.007155,-0.084150,-0.048997,-0.108825,-0.050567,-0.133877,0.059565,0.062884,-0.044627,0.135318,0.011909,-0.011830,-0.050518,0.008238,0.063622,-0.043676,-0.025565,0.132445,0.026845,0.135038,0.066960,-0.050404,-0.005057,0.011621,0.096969,-0.010758,-0.122935,-0.029524,0.076288,0.065401,0.184442,0.089019,0.124237,0.019970,0.069586,0.055955,-0.124480,-0.045974,-0.117154,0.126941,0.046300,-0.043384,0.014199,0.089031,0.079238,0.056816,0.057623,0.029148,-0.034485,-0.131989,0.068585,-0.115498,0.119650,-0.024240,0.162820,0.103397,0.017387,-0.053739,-0.103025,-0.104953,0.111835,-0.065885,0.088379,-0.069182,-0.092263,0.009898,0.114857,0.108544,0.096700,-0.112879,-0.034557,0.010774,-0.122445,0.139060,0.022262,0.038926,-0.086051,-0.104355,-0.100748,-0.079688,-0.037269,0.139218,-0.061105,-0.055996,-0.027422,0.164242,-0.045268,0.059910,-0.009455,-0.053238,0.060546,0.041195,-0.030853,-0.052101,0.022438,0.148514,0.070755,-0.060715,-0.066488,-0.003173,-0.058629,0.071600,-0.005013,-0.020230,0.107519,-0.098922,0.139490,-0.016385,0.090908,-0.029416,-0.047105,0.089966,0.027771,-0.056599,-0.114567,-0.023793,0.011160,0.020384,0.042549,-0.061400,-0.053821,0.170673,-0.022552,0.016014,-0.112107,-0.186427,-0.130209,0.107899,-0.129091,-0.087723,-0.023592,-0.072093,-0.068514,-0.044570,0.054289,0.039282,-0.144365,0.075156,0.074499,0.110108,-0.033796,-0.058834,0.194645,0.153366,-0.000711,0.128904,-0.086778,0.087485,-0.102311,-0.028766,0.042198,-0.043897,0.138153,0.026206,-0.149782,-0.068993,0.180728,0.086591,0.074912,0.024619,0.038293,0.157815,0.009379,0.064882,-0.052558,0.056804,-0.083597,0.009281,0.002411,-0.052748,0.013733,0.160589,0.038421,-0.080688,0.217183,0.056080,0.084898,-0.091019,0.217076,-0.139664,0.068105,-0.093851,0.146613,0.103175,-0.061674,0.011517,-0.110779,-0.094388,0.059234,-0.042207,0.116063,-0.162019,-0.062406,0.016312,0.146035,0.245050,0.011363,-0.124134,0.081862,-0.058846,-0.193029,0.106384,0.080951,-0.117209,-0.076804,-0.053218,-0.102506,-0.003160,-0.010384,0.125525,0.095586,0.035952,-0.063315,0.185978,0.029127,-0.104996,-0.014541,-0.099341,0.023797,-0.059525,0.026752,-0.006847,-0.061937,0.187869,0.104013,-0.144212,0.011735,-0.001951,-0.151044,-0.045481,0.083359,-0.040065,0.217753,0.017786,0.031189,-0.043712,0.087560,-0.079156,-0.100300,0.032869,0.035568,-0.056514,-0.017368,-0.067460,0.102493,0.037296,0.082987,-0.095542,-0.090706,0.044667,-0.105145,0.096740,-0.031654,-0.078749,-0.143688,0.117792,-0.185733,-0.019121,-0.079702,0.012923,-0.108923,-0.134442,0.001782,0.007189,-0.039824,0.019802,0.074184,0.002723,-0.078487,-0.032653,0.163336,0.120495,0.114529,0.095065,-0.103346,0.197020,-0.092258,-0.062205,0.035350,0.027063,0.109597,-0.114811,0.022636,-0.018828,0.123056,0.180710,0.074401,-0.022910,0.096372,0.055871,-0.034605,-0.088762,-0.066543,-0.056571,-0.129485,0.026896,-0.100068,0.014911,0.080671,0.087743,0.109216,-0.132574,0.142251,0.108268,-0.015709,-0.100764,0.132926,-0.099252,0.060248,0.021854,0.092262,0.058330,0.008512,-0.095716,-0.089631,-0.132913,0.007734,-0.094864,0.121648,-0.031839,-0.092692,-0.032035,0.072544,0.234711,0.042616,-0.093156,0.035018,-0.057393,-0.043233,0.176953,-0.107195,-0.067747,0.008579,0.018953,-0.094547,-0.051165,0.081272,0.043489,0.028725,0.051221,-0.076991,0.199140,0.131960,-0.035142,0.023402,-0.200334,0.080251,0.020054,0.116227,0.011088,-0.084451,0.041387,-0.030686,-0.044426,-0.000987,0.035079,0.039375,0.125603,0.086605,-0.093786,0.187038,0.058051,0.050813,-0.071138,0.085096,-0.062596,-0.092028,0.017762,-0.093783,-0.003014,-0.090960,-0.081649,0.074622,0.003640,0.114762,-0.045263,-0.029132,-0.095134,-0.100198,0.084349,0.042579,-0.200361,-0.106434,-0.024368,-0.114515,0.055022,-0.047823,0.024676,-0.066549,-0.083112,0.015392,0.066962,-0.125457,0.002533,0.104212,-0.020858,-0.061464,-0.044120,0.076569,0.109028,0.050249,0.046273,-0.148619,0.185396,0.017922,0.046433,-0.050330,0.070756,0.058857,-0.107935,-0.154663,-0.145476,0.141665,0.136472,0.130956,0.021672,0.110186,0.168594,0.098233,-0.020215,-0.027146,-0.030223,0.081171,-0.025270,-0.131880,-0.112404,0.113479,-0.006116,0.148406,-0.047340,0.121394,0.103959,-0.095274,-0.101198,0.181495,-0.145893,0.109588,-0.036784,0.151942,0.100153,0.039021,0.065334,-0.201940,-0.169605,0.047917,0.019747,0.118206,0.034545,-0.013188,-0.036924,0.194777,0.105793,-0.023275,-0.039088,-0.140921,-0.092423,-0.047636,0.249918,0.057598,0.050446,0.042535,0.093067,0.019173,-0.086267,-0.076469,0.067705,-0.021693,0.049824,0.057567,0.129976,0.119290,0.057197,0.028336,-0.143376,-0.017391,-0.122543,-0.050197,-0.002453,-0.015904,0.015249,-0.017494,-0.128581,-0.059728,0.024855,-0.170163,0.006689,0.035080,-0.026962,0.076810,-0.082684,0.066314,-0.122815,-0.036672,-0.075095,0.026192,-0.026163,0.098000,0.020777,-0.031869,0.029670,-0.022787,-0.013916,0.023817,0.015782,-0.089515,-0.172581,-0.024579,0.142098,-0.027304,-0.290653,-0.053825,-0.078960,-0.148081,0.108984,-0.120133,0.018378,-0.129543,-0.141097,0.046240,-0.035965,-0.083394,0.004734,-0.122813,-0.136876,0.071497,0.032451,0.138785,0.185052,-0.049710,-0.046035,-0.057942,0.075976,-0.041128,-0.051240,0.014062,0.045613,0.320218,-0.270919,-0.160215,-0.117282,0.173775,0.062272,0.110268,0.042940,0.109555,0.141902,-0.025040,0.019676,-0.076905,0.005413,0.041217,-0.026454,-0.022805,-0.079938,0.056439,0.117419,0.113527,-0.247936,0.171883,-0.029582,-0.064630,-0.131658,0.145961,-0.021898,0.107409,0.002987,0.037461,0.156888,-0.086229,-0.016458,-0.079182,-0.068652,0.118636,0.073275,0.087300,0.094882,-0.141458,-0.001434,0.217051,0.208418,-0.031458,-0.046238,-0.000852,-0.054488,-0.066309,0.194280,0.028669,-0.002273,0.040994,0.138497,0.026064,-0.160433,0.035410,0.112241,0.070583,0.117557,0.035349,0.138023,0.162119,-0.084788,-0.030788,-0.164341,0.012660,0.006002,-0.113228,-0.005760,-0.175617,0.032865,-0.009441,-0.161014,-0.144655,-0.110383,-0.111412,-0.027877,0.047068,0.153531,0.149368,0.007877,0.111340,-0.176901,-0.097821,-0.108612,-0.031209,-0.056557,0.088105,-0.012598,0.015918,0.046867,0.018834,0.011394,0.068581,0.027327,-0.170206,-0.084636,0.030510,0.200422,0.005088,-0.213473,-0.099857,0.003588,-0.120212,0.005480,-0.061395,0.047708,-0.064868,-0.084469,-0.060327,-0.039975,0.004299,0.007677,-0.068308,-0.082586,-0.006279,-0.088967,0.093241,0.146153,-0.009020,-0.021606,-0.174989,0.251247,-0.115204,0.006195,-0.014770,0.156063,0.220472,-0.117278,-0.155884,-0.196315,0.134583,0.052625,0.028562,-0.126634,0.039189,0.102552,-0.057676,0.046444,0.050644,-0.125538,0.039897,-0.004333,-0.055189,-0.193441,0.017910,0.052998,0.293366,-0.175634,0.130405,-0.055972,-0.111969,-0.192385,0.267831,-0.088176,0.128039,-0.042232,0.156113,0.163553,0.028579,0.069307,-0.092648,-0.154959,0.260488,0.131123,0.200179,0.045916,-0.138894,-0.119185,0.219813,0.158422,-0.015777,-0.015348,-0.028693,-0.249830,-0.079592,0.197915,-0.007236,0.041124,0.085405,0.146618,-0.007729,-0.143749,-0.098354,0.110057,0.152375,0.081451,-0.133686,0.082035,0.168135,-0.057062,-0.013341,-0.203542,0.114466,-0.093716,-0.033024,0.050847,-0.156267,0.034513,-0.020412,-0.130703,-0.097040,-0.102141,-0.083183,0.109506,-0.014389,0.171206,0.220454,0.063391,0.109701,-0.152927,-0.021899,-0.233450,0.035696,-0.010044,0.077132,0.015389,-0.023159,-0.035146,0.083435,0.067001,0.064785,0.013942,-0.026383,0.001769,-0.051521,0.093275,0.063904,-0.183021,-0.039010,0.066986,-0.136178,-0.108104,-0.073989,0.152237,-0.183211,-0.247493,-0.027294,0.107702,-0.146169,-0.023059,0.131335,0.027224,-0.077181,-0.045644,0.177167,0.180832,-0.001398,-0.084223,-0.207683,0.302643,-0.001296,0.107125,0.030562,0.170381,0.185101,-0.266378,-0.168645,-0.227932,0.223951,0.202706,0.196414,-0.145751,0.103023,0.248151,0.012273,0.014839,0.096979,-0.108311,0.025872,0.048076,-0.189113,-0.151647,0.085787,0.208402,0.173790,-0.041688,0.342210,0.088748,-0.042241,-0.218049,0.289134,-0.137611,0.178327,-0.048823,0.084837,0.081138,-0.158489,-0.070831,-0.208965,-0.265735,0.256443,0.140920,0.189051,-0.012350,0.008357,-0.092093,0.210939,0.417435,0.052759,-0.137241,0.133942,-0.201272,-0.169652,0.345300,-0.151139,-0.016463,-0.151518,0.059436,0.002752,-0.118316,0.052479,0.135243,0.033371,0.141108,-0.035701,0.278078,0.196232,-0.074640,0.109094,-0.073812,0.210869,0.045925,0.006106,0.022898,-0.117003,0.096282,0.087609,-0.298998,-0.182808,-0.258804,-0.104858,0.172816,-0.012714,-0.078835,0.251285,-0.040451,0.155595,-0.072451,0.023312,-0.205752,0.005141,0.145400,-0.025233,0.079963,0.091137,-0.085164,-0.033783,-0.078317,0.146368,-0.043366,-0.052583,-0.101722,-0.105172,0.125210,0.018799,-0.153489,-0.081130,0.010917,-0.171599,-0.016811,0.001203,0.072728,-0.145395,-0.143418,-0.091949,0.050529,-0.007235,0.086379,0.090220,-0.103683,-0.166177,-0.073843,0.220110,0.141083,0.027446,-0.030064,-0.111821,0.384558,-0.066191,0.144716,0.045205,0.117366,0.060489,-0.230925,-0.046466,-0.224812,0.126666,0.035557,0.177535,-0.107847,0.016507,0.120852,0.003197,0.141195,0.092458,-0.048609,0.008805,0.146817,-0.076647,-0.090278,0.074139,0.068399,0.206804,-0.105160,0.096861,-0.013635,-0.031754,-0.147994,0.202762,-0.056806,0.060942,0.020596,-0.006832,0.076538,-0.147300,0.059691,-0.113112,-0.103556,0.138453,0.132331,0.077810,0.051341,-0.000307,-0.071440,0.027799,0.148384,0.092201,-0.137471,0.180283,-0.039435,-0.142022,0.092396,-0.017338,0.041070,-0.021910,-0.133139,-0.004174,-0.138694,0.181935,0.125715,0.026365,0.017251,-0.012991,0.010208,0.101236,-0.035187,0.107856,-0.097142,0.104799,-0.053074,-0.100098,-0.123053,-0.120851,0.037409,-0.071091,-0.249680,-0.104922,-0.261868,-0.126802,0.131736,-0.013155,-0.087247,0.195165,-0.174412,0.024902,-0.075009,-0.022848,-0.127135,0.121778,0.051354,0.079425,-0.036774,0.131086,0.034406,0.021739,-0.053955,-0.017587,-0.082403,0.028640,0.064195,0.040686,0.216221,-0.065180,0.026282,-0.040773,-0.036371,-0.250167,0.029364,-0.060753,0.046319,-0.194902,-0.209584,-0.027219,0.113705,0.017333,0.256910,0.074929,-0.021322,-0.062281,0.004534,-0.041407,-0.083061,-0.009530,0.007445,-0.172609,0.275637,-0.064184,0.006737,0.140657,0.134002,0.000933,-0.185253,-0.086120,-0.140219,-0.074674,0.047686,0.132935,-0.085883,0.229394,-0.016686,0.040039,0.071010,0.069358,-0.208829,0.162088,-0.066020,-0.031478,-0.036158,-0.044371,0.054302,0.050668,0.011147,0.106951,0.052639,-0.080297,-0.115359,-0.068746,-0.135692,-0.071261,0.073477,0.037170,0.205318,-0.206428,0.061022,-0.205709,-0.022006,0.036656,0.041956,-0.045005,0.084394,0.073102,-0.105412,-0.065587,0.137655,0.128462,-0.088345,0.319786,-0.091580,0.060608,0.045393,-0.162107,0.010731,-0.011331,-0.278326,-0.045662,-0.114504,0.018505,0.002547,0.046447,-0.046373,0.121868,0.024499,-0.023439,0.101402,0.141839,0.028633,0.172349,0.016011,-0.088060,-0.144121,-0.156723,0.139845,-0.038298,-0.210653,-0.091574,-0.314462,-0.135283,0.141319,-0.122874,0.136451,-0.076015,-0.041234,-0.071764,-0.178268,-0.041455,-0.026598,0.020900,0.076584,-0.045429,-0.075377,0.053619,-0.059335,-0.008849,-0.058130,0.076288,-0.083185,0.034033,-0.030939,0.151216,0.218484,-0.035633,-0.016365,-0.055816,-0.054907,-0.094925,-0.038623,0.047045,0.167247,-0.132085,-0.138198,-0.024835,0.185576,-0.143266,0.256817,-0.009408,0.050127,0.039415,-0.021744,-0.071375,0.089166,-0.081328,0.009501,-0.184983,0.335781,-0.072757,-0.023879,0.065664,0.086598,0.192752,-0.141768,-0.206441,-0.222704,0.117282,0.233209,0.226609,-0.094719,0.216139,0.012715,0.009507,0.030190,0.055495,-0.172619,-0.005018,0.168383,-0.265269,-0.065322,-0.072043,0.104335,0.237782,0.088541,0.180501,0.017138,-0.017685,-0.111111,0.064953,-0.069013,0.027699,0.001606,0.031134,0.223436,-0.093365,0.164550,-0.292037,-0.242920,0.172401,0.009264,0.115205,0.067759,0.061873,-0.108991,-0.024396,0.064748,0.070904,-0.190407,0.204371,-0.011909,-0.044583,0.209887,-0.048725,0.100453,-0.049535,-0.245018,-0.065315,-0.037029,0.076296,0.068675,0.083000,0.082372,0.115089,-0.016493,0.055882,0.117094,0.165541,0.083105,0.176186,-0.018099,-0.159154,-0.131889,-0.109903,0.243674,-0.098685,-0.329566,-0.082680,-0.246354,-0.115558,0.073672,-0.150822,0.151345,0.050920,-0.033270,0.137232,-0.299078,-0.203202,-0.136866,-0.050364,0.112584,0.045469,0.053288,-0.083046,-0.069318,-0.055113,-0.095014,0.055273,-0.169747,-0.108806,0.083810,0.137625,0.085141,0.121422,-0.239758,-0.077625,-0.076326,-0.196655,0.129571,-0.026667,0.010210,-0.131483,-0.006162,0.057055,0.025279,-0.098869,0.158933,0.056949,0.126519,-0.064206,-0.114424,-0.066593,-0.018055,-0.111871,0.051874,-0.249319,0.264714,0.021765,-0.020418,0.113386,-0.026182,0.018728,-0.258970,-0.223021,-0.205367,0.041664,0.209255,0.161042,0.082530,0.292883,0.063448,-0.077024,-0.008036,-0.014924,-0.097448,0.064668,0.156658,-0.212927,-0.100248,-0.096371,0.079677,0.101083,0.040160,0.293922,0.179763,-0.020365,-0.065006,0.026612,-0.271607,0.109402,0.001376,0.212099,0.257538,-0.073248,0.086749,-0.318534,-0.299266,0.145605,0.034563,-0.032352,-0.093623,0.088483,-0.159299,0.063294,0.077848,0.016168,-0.197778,0.147478,-0.104803,-0.056268,0.223007,0.021271,0.056931,-0.199992,-0.251523,-0.025123,-0.181677,0.065207,0.055730,0.058670,-0.025456,0.146676,0.070649,0.055816,0.100326,0.175122,-0.060918,0.116676,0.032438,-0.008748,-0.153845,-0.179074,0.169910,-0.044019,-0.225838,0.046459,-0.237637,-0.110788,0.013034,-0.056404,0.135003,-0.115064,-0.133230,0.082260,-0.203417,-0.043843,-0.157673,-0.029883,0.095648,-0.090488,0.014560,-0.052537,-0.087907,0.089681,-0.169855,-0.054710,-0.041925,-0.058268,0.165321,0.021855,0.032194,0.076467,-0.177300,-0.119321,-0.007256,0.013381,0.251164,-0.049227,0.101383,-0.130597,0.149013,0.118565,-0.134513,0.021252,0.009651,0.135209,0.068067,-0.029947,-0.191508,-0.094433,-0.027486,0.093830,-0.026715,-0.106417,0.174448,-0.064228,-0.073747,0.111786,-0.016106,-0.040008,-0.130530,-0.198839,-0.034224,-0.020203,0.093005,0.287741,-0.071489,0.122612,-0.042421,-0.173109,0.031423,0.009011,-0.208778,0.104955,0.061457,-0.140601,-0.100383,-0.137426,0.232861,0.066354,0.211235,0.248491,0.055649,-0.065948,-0.084147,-0.031717,-0.202582,0.031023,-0.069356,0.213101,0.215702,0.052166,0.053224,-0.173301,-0.215986,0.154318,-0.112641,-0.117671,-0.191780,0.214847,-0.065211,0.019456,0.132480,0.122512,-0.092255,0.196761,-0.062289,-0.037846,0.116485,-0.035174,0.093595,-0.151419,-0.137108,-0.033750,-0.181173,-0.035949,0.114577,0.075636,0.026980,0.090937,0.049120,0.024784,-0.000789,0.170223,0.000270,0.076215,0.190981,0.024940,-0.079511,-0.097848,0.077486,0.098373,-0.110091,0.009916,-0.321166,-0.037502,0.122406,-0.049630,-0.000338,-0.093398,-0.188386,0.008002,-0.160195,-0.002706,-0.058935,-0.047944,-0.020959,0.023753,-0.060988,-0.209834,-0.037639,0.047391,-0.242870,0.052313,-0.001919,0.092238,0.198753,-0.088260,0.063311,-0.034753,-0.205240,-0.093085,-0.027451,0.018709,0.141568,-0.063934,0.162301,-0.102387,0.044397,0.138666,-0.075511,-0.124009,0.054868,0.000911,0.132302,0.119068,-0.119290,-0.080634,0.105632,-0.007746,-0.020452,-0.134965,0.030702,-0.003524,-0.219644,-0.094073,-0.083513,0.025047,-0.020290,-0.237169,-0.084359,0.079162,0.003640,0.188202,-0.003572,0.015583,-0.098391,-0.001638,0.046611,-0.094615,-0.093589,0.114220,0.053262,0.026588,0.010348,0.029616,0.087494,0.008103,0.210491,0.184515,0.183730,0.000808,0.008225,0.110469,-0.103866,-0.042459,0.011114,0.191545,0.102381,0.136197,-0.124213,-0.148042,-0.140587,0.181229,-0.082674,0.055052,-0.277662,0.111652,-0.040094,0.002348,0.237210,0.028600,-0.204524,-0.001315,-0.002269,0.016491,0.076402,0.104238,0.012702,-0.118618,-0.170208,-0.134024,-0.025680,-0.209904,0.023980,0.000880,0.078794,0.284385,-0.012069,-0.001673,0.129820,0.070862,0.011585,-0.039687,0.091239,0.005733,-0.170111,-0.077196,0.001336,0.046911,-0.057917,0.108892,-0.128354,-0.042775,0.071736,-0.061992,-0.039911,0.005353,-0.172883,0.095204,-0.057592,0.061226,0.022168,-0.059413,-0.077021,0.113100,0.057093,-0.136406,0.019157,0.094733,-0.057140,0.089680,0.020536,0.045152,0.091387,0.025516,-0.034267,0.040659,-0.131160,-0.102510,0.008224,-0.005346,0.180925,-0.016842,0.160542,-0.138182,0.017805,0.213664,0.010552,-0.083887,-0.086716,0.074904,-0.001558,-0.066595,-0.079896,-0.067732,0.134357,0.176799,0.035181,-0.091223,-0.015982,0.192969,-0.151183,-0.014674,-0.098195,0.031301,-0.018904,-0.262260,-0.112158,0.047273,0.031840,0.124809,0.239629,-0.056818,-0.070990,-0.105692,0.079178,-0.121357,0.080830,0.092647,0.079884,-0.099633,-0.060622,0.018062,-0.064155,-0.058963,0.191492,0.055203,0.160980,-0.072537,-0.007347,0.031675,-0.222862,-0.043678,-0.017739,0.246853,0.035524,0.072999,-0.278252,-0.015259,-0.133682,0.214404,-0.054051,0.067116,-0.276518,0.125756,-0.036375,-0.090696,0.096203,-0.038673,-0.024655,-0.088993,0.050134,-0.113093,0.054879,0.038067,-0.080047,-0.035643,-0.031221,0.020904,0.098595,-0.275922,0.026626,-0.022401,0.107097,0.189510,0.094825,0.061951,-0.047848,-0.059503,-0.019279,-0.105972,-0.033941,-0.071353,-0.046786,-0.210737,0.036694,0.025899,0.070962,0.075680,-0.146462,0.004483,0.135232,0.002791,-0.146195,-0.025388,-0.145971,0.110132,-0.064657,0.140752,-0.067541,-0.007589,-0.127454,-0.103207,0.034393,-0.122365,-0.036051,0.125757,-0.314346,0.014599,0.025752,0.084859,0.166911,-0.079925,-0.076490,0.077722,-0.148646,-0.034866,0.017013,0.057920,-0.024259,0.063228,0.214078,-0.005367,-0.095921,0.123127,0.081624,-0.116806,0.073117,0.073453,0.060455,-0.152759,-0.062754,-0.012455,-0.069597,0.277672,0.018463,-0.162715,0.005748,0.086275,-0.147905,0.044339,-0.111855,-0.087468,-0.024256,-0.232681,-0.139998,0.068874,0.085567,0.174727,0.294222,0.067623,0.033233,-0.009111,0.108703,-0.212951,0.334868,-0.018534,-0.000223,0.000609,-0.174759,0.053651,-0.036916,0.048863,0.191007,0.118753,0.072272,-0.029556,-0.142426,0.123625,-0.148078,0.085490,-0.001821,0.123614,0.144028,0.124344,-0.335260,-0.164252,-0.090903,0.066236,-0.115004,-0.011825,-0.378067,0.017533,-0.105720,0.029497,0.076212,-0.006271,-0.027349,-0.123480,-0.033803,-0.158342,-0.068099,0.187972,-0.093776,-0.115343,-0.150122,-0.287433,0.092328,-0.278917,0.109695,-0.125784,0.054795,0.114011,0.063885,0.019214,0.140220,0.031276,-0.125702,0.032141,0.011339,0.029071,-0.173117,-0.132325,0.057033,0.086873,0.118603,-0.018852,-0.175754,-0.043145,0.082278,-0.025039,-0.143431,-0.110830,-0.085392,0.159210,-0.132054,0.097418,-0.007828,-0.054325,0.027571,-0.118387,0.064884,-0.101648,0.054741,0.152575,-0.197635,0.076856,0.029743,0.181253,0.157415,0.065367,0.106056,0.093698,-0.206094,-0.124837,-0.008841,-0.030393,0.049612,0.101951,0.268126,-0.108750,-0.264233,0.165709,0.091444,-0.132374,-0.013536,0.060455,0.079840,-0.197936,-0.019015,0.104285,0.064547,0.171381,0.018142,-0.219931,-0.070520,0.086526,-0.159310,0.023645,-0.150647,0.098933,-0.101294,-0.211941,-0.036137,0.083739,0.076649,0.065042,0.221293,0.182272,-0.007195,-0.042975,0.152864,-0.089662,0.245349,-0.009465,0.124195,-0.020355,-0.250949,0.074752,0.075722,-0.034439,0.063111,0.129445,0.052215,0.046041,-0.108843,0.023636,-0.209442,0.060270,-0.109456,0.141723,0.073986,0.013990,-0.158241,-0.024273,-0.164155,0.071935,0.010117,0.076812,-0.323614,-0.005936,-0.083878,0.001409,-0.009303,0.171646,-0.086585,-0.070481,0.062980,-0.102572,0.117421,0.180986,-0.189050,0.047306,-0.068534,-0.173570,0.001233,-0.301552,-0.000893,0.046429,0.055517,0.074805,0.138479,-0.005079,0.166944,-0.040217,-0.017455,-0.008535,0.005785,0.051981,-0.027463,-0.115746,0.011148,0.123056,-0.011634,-0.000304,-0.124334,-0.137291,0.011461,-0.169644,-0.106282,-0.032239,-0.060605,0.143840,-0.171416,0.162621,-0.156499,-0.073230,-0.019227,-0.076660,-0.050175,-0.051976,0.003509,0.190658,-0.249526,-0.023468,0.061138,-0.036532,0.148878,0.042081,0.099605,0.033711,-0.048010,-0.152601,0.055327,0.016988,-0.059291,-0.008277,0.129109,-0.308820,-0.237012,0.086218,0.019637,-0.176763,-0.096423,-0.009838,0.153814,-0.185423,-0.009548,0.080000,0.113892,0.358045,0.134098,-0.287521,-0.026790,0.002608,-0.075657,0.030692,-0.059553,0.081759,-0.094996,-0.254210,-0.058241,0.117086,0.130234,0.077072,0.291110,0.126093,0.147356,-0.067115,0.212041,-0.076069,0.200425,-0.129640,0.114982,-0.080277,-0.239935,0.049412,0.028275,0.121355,-0.062086,0.116434,0.130523,-0.038665,-0.084099,0.194654,-0.254386,0.190809,-0.005692,0.144520,0.147983,0.083822,-0.248011,-0.073255,-0.196619,0.103219,-0.102912,0.049089,-0.204544,-0.099920,-0.161302,0.114625,-0.062001,0.143197,-0.080104,-0.153686,0.021717,-0.132842,0.121909,0.184755,-0.142433,0.058699,0.009472,-0.090669,-0.113765,-0.276548,0.079380,-0.083065,0.040350,-0.012032,0.087507,0.030995,0.165587,-0.009564,0.006138,-0.063665,-0.075509,0.025250,-0.056907,-0.023128,-0.028539,0.071293,-0.099883,-0.070682,-0.145350,-0.023087,0.070007,-0.093295,-0.127737,-0.018792,0.081990,0.075617,-0.195714,0.158099,-0.114881,-0.051927,0.039962,0.087824,0.030767,-0.103723,0.117173,0.087136,-0.114710,-0.159348,0.070365,-0.065260,0.168208,-0.113012,0.141840,-0.043638,-0.100056,-0.038808,0.136476,0.034973,-0.043080,-0.083454,0.145151,-0.238442,-0.095926,0.200729,0.088453,-0.188821,0.023698,0.083304,0.114707,-0.124906,0.083515,0.135515,0.066086,0.272224,0.105926,-0.163794,0.028844,-0.106193,-0.175651,0.007371,-0.142326,0.033997,-0.054603,-0.132192,-0.064726,0.181784,0.037703,0.084797,0.235796,0.157677,0.078226,-0.041361,0.128117,-0.043542,0.206837,-0.036369,0.140691,-0.117947,-0.120023,0.088706,-0.010463,-0.050134,0.018656,0.057143,0.159426,0.021559,-0.140133,0.043117,-0.164551,0.119918,-0.035455,0.088758,0.086894,-0.018771,-0.130282,-0.154854,-0.113762,0.062539,0.011926,0.083873,0.001209,-0.050847,-0.118558,0.039838,-0.071164,0.023823,-0.052452,-0.097831,0.047920,-0.180948,0.079485,0.161108,-0.068310,-0.005781,0.036110,-0.096239,0.056088,-0.252172,0.101515,0.010895,0.083412,-0.062288,0.179007,0.124823,0.150092,-0.014043,0.064254,-0.045301,-0.023452,0.005654,0.019636,-0.041605,0.018654,0.212140,-0.014615,-0.026419,-0.139604,-0.055752,0.100736,-0.027269,-0.047773,0.009952,0.053374,0.090965,-0.058156,0.245411,-0.159322,0.003916,-0.044136,-0.013636,0.067095,-0.066547,-0.047824,0.124352,-0.103983,-0.075507,0.095157,0.059454,0.055497,-0.109455,-0.018979,0.041669,-0.178356,-0.137331,0.091314,-0.020712,0.083043,0.006752,0.088297,-0.101951,-0.134094,0.160328,0.066076,-0.050188,-0.003269,0.142940,0.021202,-0.136954,-0.000378,0.067665,0.041318,0.111472,0.123909,-0.226983,0.101855,-0.152159,0.053160,-0.024127,-0.115073,0.176269,-0.059817,-0.101314,-0.065149,0.160260,0.143601,0.118233,0.043957,0.037741,0.033274,0.031306,0.144502,0.061363,0.154893,0.072485,0.108151,-0.074324,-0.109001,0.091343,-0.031483,0.077758,0.090086,-0.017043,0.109519,0.100059,-0.091549,0.135664,-0.103891,0.166743,-0.100657,0.167676,0.016707,-0.032022,-0.069072,-0.085757,-0.104886,0.172413,-0.000395,0.120558,-0.039379,-0.039986,-0.178753,-0.025346,0.050936,0.174285,-0.008767,-0.117129,-0.076957,-0.070936,0.080298,0.138633,0.021277,0.008328,-0.044047,-0.099108,-0.004482,-0.022443,0.015013,0.100957,0.115076,-0.147234,0.056447,0.078750,-0.007589,-0.103395,0.038007,0.016784,-0.068114,-0.033793,-0.000772,-0.090710,-0.021698,0.075419,-0.018533,-0.077722,-0.023231,-0.166677,0.109497,0.088618,-0.131971,-0.062584,0.001584,0.172277,-0.119143,0.167130,-0.088395,-0.103792,-0.068953,0.068805,0.031766,0.006648,-0.025173,0.108100,0.056534,-0.024316,0.017988,0.045360,-0.008396,0.039996,0.164391,0.001100,0.029281,-0.097456,0.110532,-0.099160,-0.065250,-0.069727,0.015324,-0.179783,-0.139973,-0.001797,0.178904,-0.120614,0.086098,-0.026641,0.080313,-0.047687,-0.009141,0.139165,-0.002764,0.100371,0.085681,-0.166135,0.070217,-0.056668,0.064748,-0.068256,-0.113304,0.109948,-0.120834,-0.056419,-0.047312,0.106903,0.049183,0.029782,0.110441,0.138656,0.143638,-0.019900,0.081799,0.057850,-0.011798,0.002396,-0.075810,0.017125,-0.157246,0.047697,0.033476,0.199705,-0.074287,0.118757,0.011917,-0.032692,0.032321,0.056197,-0.147565,0.038336,-0.061203,0.097588,0.080493,-0.027659,0.052920,-0.162090,-0.005019,0.026460,0.005728,0.151832,0.050237,-0.096880,-0.051078,0.242761,0.026057,0.076436,-0.098662,-0.096404,-0.122065,-0.147285,0.193713,0.029632,0.041910,0.096290,0.025439,-0.040287,0.014571,-0.109390,-0.075820,0.122153,0.049726,-0.062277,0.017899,0.030057,0.095264,-0.021773,-0.009386,-0.016395,-0.150490,-0.058053,0.072122,-0.070737,0.033837,0.066358,-0.100095,-0.142219,-0.139583,-0.083318,0.003824,0.028554,0.076989,-0.022951,-0.069516,0.096418,0.003168,0.086383,-0.049014,0.029625,0.023941,0.060762,-0.023752,-0.007524,0.012184,0.085465,0.024398,0.070026,0.061258,-0.084011,0.073788,0.037924,0.038663,0.078026,0.043916,0.023289,0.050987,-0.049513,0.020415,0.036432,-0.058034,0.016307,-0.035196,0.046815,0.062996,0.039887,0.131776,-0.054988,-0.011291,0.063994,-0.060722,0.050458,0.096219,0.150560,-0.034206,-0.100977,0.050108,0.032808,0.014468,-0.151941,-0.013934,-0.007106,-0.079436,-0.082591,0.045086,0.052498,0.063147,0.111264,-0.063686,-0.005348,-0.058031,-0.034354,0.033202,0.032459,0.005892,0.107330,-0.143551,-0.050788,-0.086092,-0.071392,0.024091,0.055757,0.055409,0.104168,-0.030391,-0.084496,0.009626,0.141801,-0.091951,-0.045980,-0.032060,0.013702,0.009312,-0.000018,0.057275,-0.003717,0.035998,0.017250,0.046231,0.061738,-0.043571,0.038094,-0.026136,0.068625,-0.061045,0.044663,0.020407,-0.063519,-0.013837,-0.020703,0.006994,0.057529,0.063962,0.080374,0.083488,-0.049277,-0.008257,-0.039657,-0.007794,0.047360,0.088514,0.056865,0.074750,0.067572,-0.016073,-0.035400,0.023261,-0.043010,0.007387,0.058836,-0.032915,-0.073082,0.089904,0.083342,0.048352,-0.100424,0.022458,-0.026283,0.084566,-0.046004,0.019899,0.031974,0.055656,0.028298,-0.005982,0.074893,-0.007689,0.007700,0.067856,-0.133944,-0.064021,0.067627,0.001649,-0.036468,-0.067254,-0.046473,-0.008097,0.010629,-0.032010,0.015404,-0.036228,0.022164,-0.049273,0.075783,0.043863,0.062328,0.033640,-0.070492,0.072156,-0.008202,-0.017454,-0.033467,0.054509,0.044841,-0.073949,-0.018927,0.009057,-0.025126,-0.014996,-0.035663,-0.047349,